{"layers":[{"0":{},"1":{},"2":{},"3":{},"4":{},"5":{},"6":{},"7":{},"8":{},"9":{},"10":{},"11":{},"12":{},"13":{},"14":{},"15":{},"16":{},"17":{},"18":{},"19":{},"20":{},"21":{},"22":{},"23":{},"24":{},"25":{},"26":{},"27":{},"28":{},"29":{},"30":{},"31":{},"32":{},"33":{},"34":{},"35":{},"36":{},"37":{},"38":{},"39":{},"40":{},"41":{},"42":{},"43":{},"44":{},"45":{},"46":{},"47":{},"48":{},"49":{},"50":{},"51":{},"52":{},"53":{},"54":{},"55":{},"56":{},"57":{},"58":{},"59":{},"60":{},"61":{},"62":{},"63":{},"64":{},"65":{},"66":{},"67":{},"68":{},"69":{},"70":{},"71":{},"72":{},"73":{},"74":{},"75":{},"76":{},"77":{},"78":{},"79":{},"80":{},"81":{},"82":{},"83":{},"84":{},"85":{},"86":{},"87":{},"88":{},"89":{},"90":{},"91":{},"92":{},"93":{},"94":{},"95":{},"96":{},"97":{},"98":{},"99":{},"100":{},"101":{},"102":{},"103":{},"104":{},"105":{},"106":{},"107":{},"108":{},"109":{},"110":{},"111":{},"112":{},"113":{},"114":{},"115":{},"116":{},"117":{},"118":{},"119":{},"120":{},"121":{},"122":{},"123":{},"124":{},"125":{},"126":{},"127":{},"128":{},"129":{},"130":{},"131":{},"132":{},"133":{},"134":{},"135":{},"136":{},"137":{},"138":{},"139":{},"140":{},"141":{},"142":{},"143":{},"144":{},"145":{},"146":{},"147":{},"148":{},"149":{},"150":{},"151":{},"152":{},"153":{},"154":{},"155":{},"156":{},"157":{},"158":{},"159":{},"160":{},"161":{},"162":{},"163":{},"164":{},"165":{},"166":{},"167":{},"168":{},"169":{},"170":{},"171":{},"172":{},"173":{},"174":{},"175":{},"176":{},"177":{},"178":{},"179":{},"180":{},"181":{},"182":{},"183":{},"184":{},"185":{},"186":{},"187":{},"188":{},"189":{},"190":{},"191":{},"192":{},"193":{},"194":{},"195":{},"196":{},"197":{},"198":{},"199":{},"200":{},"201":{},"202":{},"203":{},"204":{},"205":{},"206":{},"207":{},"208":{},"209":{},"210":{},"211":{},"212":{},"213":{},"214":{},"215":{},"216":{},"217":{},"218":{},"219":{},"220":{},"221":{},"222":{},"223":{},"224":{},"225":{},"226":{},"227":{},"228":{},"229":{},"230":{},"231":{},"232":{},"233":{},"234":{},"235":{},"236":{},"237":{},"238":{},"239":{},"240":{},"241":{},"242":{},"243":{},"244":{},"245":{},"246":{},"247":{},"248":{},"249":{},"250":{},"251":{},"252":{},"253":{},"254":{},"255":{},"256":{},"257":{},"258":{},"259":{},"260":{},"261":{},"262":{},"263":{},"264":{},"265":{},"266":{},"267":{},"268":{},"269":{},"270":{},"271":{},"272":{},"273":{},"274":{},"275":{},"276":{},"277":{},"278":{},"279":{},"280":{},"281":{},"282":{},"283":{},"284":{},"285":{},"286":{},"287":{},"288":{},"289":{},"290":{},"291":{},"292":{},"293":{},"294":{},"295":{},"296":{},"297":{},"298":{},"299":{},"300":{},"301":{},"302":{},"303":{},"304":{},"305":{},"306":{},"307":{},"308":{},"309":{},"310":{},"311":{},"312":{},"313":{},"314":{},"315":{},"316":{},"317":{},"318":{},"319":{},"320":{},"321":{},"322":{},"323":{},"324":{},"325":{},"326":{},"327":{},"328":{},"329":{},"330":{},"331":{},"332":{},"333":{},"334":{},"335":{},"336":{},"337":{},"338":{},"339":{},"340":{},"341":{},"342":{},"343":{},"344":{},"345":{},"346":{},"347":{},"348":{},"349":{},"350":{},"351":{},"352":{},"353":{},"354":{},"355":{},"356":{},"357":{},"358":{},"359":{},"360":{},"361":{},"362":{},"363":{},"364":{},"365":{},"366":{},"367":{},"368":{},"369":{},"370":{},"371":{},"372":{},"373":{},"374":{},"375":{},"376":{},"377":{},"378":{},"379":{},"380":{},"381":{},"382":{},"383":{},"384":{},"385":{},"386":{},"387":{},"388":{},"389":{},"390":{},"391":{},"392":{},"393":{},"394":{},"395":{},"396":{},"397":{},"398":{},"399":{},"400":{},"401":{},"402":{},"403":{},"404":{},"405":{},"406":{},"407":{},"408":{},"409":{},"410":{},"411":{},"412":{},"413":{},"414":{},"415":{},"416":{},"417":{},"418":{},"419":{},"420":{},"421":{},"422":{},"423":{},"424":{},"425":{},"426":{},"427":{},"428":{},"429":{},"430":{},"431":{},"432":{},"433":{},"434":{},"435":{},"436":{},"437":{},"438":{},"439":{},"440":{},"441":{},"442":{},"443":{},"444":{},"445":{},"446":{},"447":{},"448":{},"449":{},"450":{},"451":{},"452":{},"453":{},"454":{},"455":{},"456":{},"457":{},"458":{},"459":{},"460":{},"461":{},"462":{},"463":{},"464":{},"465":{},"466":{},"467":{},"468":{},"469":{},"470":{},"471":{},"472":{},"473":{},"474":{},"475":{},"476":{},"477":{},"478":{},"479":{},"480":{},"481":{},"482":{},"483":{},"484":{},"485":{},"486":{},"487":{},"488":{},"489":{},"490":{},"491":{},"492":{},"493":{},"494":{},"495":{},"496":{},"497":{},"498":{},"499":{},"500":{},"501":{},"502":{},"503":{},"504":{},"505":{},"506":{},"507":{},"508":{},"509":{},"510":{},"511":{},"512":{},"513":{},"514":{},"515":{},"516":{},"517":{},"518":{},"519":{},"520":{},"521":{},"522":{},"523":{},"524":{},"525":{},"526":{},"527":{},"528":{},"529":{},"530":{},"531":{},"532":{},"533":{},"534":{},"535":{},"536":{},"537":{},"538":{},"539":{},"540":{},"541":{},"542":{},"543":{},"544":{},"545":{},"546":{},"547":{},"548":{},"549":{},"550":{},"551":{},"552":{},"553":{},"554":{},"555":{},"556":{},"557":{},"558":{},"559":{},"560":{},"561":{},"562":{},"563":{},"564":{},"565":{},"566":{},"567":{},"568":{},"569":{},"570":{},"571":{},"572":{},"573":{},"574":{},"575":{},"576":{},"577":{},"578":{},"579":{},"580":{},"581":{},"582":{},"583":{},"584":{},"585":{},"586":{},"587":{},"588":{},"589":{},"590":{},"591":{},"592":{},"593":{},"594":{},"595":{},"596":{},"597":{},"598":{},"599":{},"600":{},"601":{},"602":{},"603":{},"604":{},"605":{},"606":{},"607":{},"608":{},"609":{},"610":{},"611":{},"612":{},"613":{},"614":{},"615":{},"616":{},"617":{},"618":{},"619":{},"620":{},"621":{},"622":{},"623":{},"624":{},"625":{},"626":{},"627":{},"628":{},"629":{},"630":{},"631":{},"632":{},"633":{},"634":{},"635":{},"636":{},"637":{},"638":{},"639":{},"640":{},"641":{},"642":{},"643":{},"644":{},"645":{},"646":{},"647":{},"648":{},"649":{},"650":{},"651":{},"652":{},"653":{},"654":{},"655":{},"656":{},"657":{},"658":{},"659":{},"660":{},"661":{},"662":{},"663":{},"664":{},"665":{},"666":{},"667":{},"668":{},"669":{},"670":{},"671":{},"672":{},"673":{},"674":{},"675":{},"676":{},"677":{},"678":{},"679":{},"680":{},"681":{},"682":{},"683":{},"684":{},"685":{},"686":{},"687":{},"688":{},"689":{},"690":{},"691":{},"692":{},"693":{},"694":{},"695":{},"696":{},"697":{},"698":{},"699":{},"700":{},"701":{},"702":{},"703":{},"704":{},"705":{},"706":{},"707":{},"708":{},"709":{},"710":{},"711":{},"712":{},"713":{},"714":{},"715":{},"716":{},"717":{},"718":{},"719":{},"720":{},"721":{},"722":{},"723":{},"724":{},"725":{},"726":{},"727":{},"728":{},"729":{},"730":{},"731":{},"732":{},"733":{},"734":{},"735":{},"736":{},"737":{},"738":{},"739":{},"740":{},"741":{},"742":{},"743":{},"744":{},"745":{},"746":{},"747":{},"748":{},"749":{},"750":{},"751":{},"752":{},"753":{},"754":{},"755":{},"756":{},"757":{},"758":{},"759":{},"760":{},"761":{},"762":{},"763":{},"764":{},"765":{},"766":{},"767":{},"768":{},"769":{},"770":{},"771":{},"772":{},"773":{},"774":{},"775":{},"776":{},"777":{},"778":{},"779":{},"780":{},"781":{},"782":{},"783":{}},{"0":{"bias":-0.02029325348600509,"weights":{"0":-0.19037919240595108,"1":-0.015261034469883583,"2":-0.13519136976544932,"3":-0.10284329855417412,"4":-0.1829483010615924,"5":0.06139017496645438,"6":-0.06203087637536617,"7":-0.13385341422519606,"8":0.17036108797888866,"9":-0.17097212262684877,"10":0.016064674006709023,"11":0.08691176127880224,"12":-0.015722886652513257,"13":0.18465734729624592,"14":-0.14627202130150574,"15":-0.08278595817801744,"16":-0.15569495324526203,"17":-0.1357350729536983,"18":-0.00021840624719321466,"19":-0.031635335350269495,"20":0.13666439177049478,"21":-0.16743945593207965,"22":-0.16989742192577353,"23":0.06580990438720491,"24":-0.15458338042177325,"25":-0.1412897912221408,"26":-0.0021867054465503633,"27":-0.01009278882702197,"28":-0.11895042195072306,"29":0.09313368799474536,"30":0.12903704854853537,"31":0.12132690808681801,"32":-0.14908661236379148,"33":-0.039567368206216535,"34":0.0022107446881116074,"35":-0.0818046010993346,"36":-0.07210641745171983,"37":-0.04137699171058369,"38":-0.014774933493571299,"39":0.06219689897215421,"40":-0.15701638710762567,"41":0.16167326265597448,"42":-0.056221448122847704,"43":0.1397008233141751,"44":-0.06525135637965804,"45":0.2079043123640642,"46":0.18660863520580168,"47":-0.15278133212242392,"48":-0.17509585896485852,"49":0.059657464969676506,"50":0.1992673028420585,"51":-0.18080280325285122,"52":0.11780725705336925,"53":-0.14003171177971607,"54":-0.191547099324903,"55":-0.1811799605724465,"56":0.16438031700759365,"57":0.19646874140815412,"58":-0.130072455406978,"59":-0.18486501540095424,"60":-0.028628442089958905,"61":0.13441602786184836,"62":-0.05624016811183159,"63":-0.012374065051605614,"64":0.1267626299274607,"65":-0.09497635090262511,"66":0.006448125421012217,"67":0.05919450061870843,"68":0.08756676068709836,"69":0.053822723374404344,"70":-0.04157275886069524,"71":-0.015915081371850548,"72":0.20661863886204368,"73":0.15693493083860388,"74":-0.08167446285700897,"75":-0.0009588470409821418,"76":0.15572373464830724,"77":-0.04685909736112571,"78":0.1254892803481015,"79":0.1784531133960774,"80":-0.10780972342204957,"81":-0.1912029864692346,"82":-0.07234608976740758,"83":-0.11445283985375704,"84":0.13364329089854116,"85":0.17539836568476608,"86":0.021334718066823827,"87":-0.06820685079995412,"88":-0.16834825027214287,"89":0.1793008155205731,"90":-0.2123175072518883,"91":0.11020939550209823,"92":0.1155199790319419,"93":-0.11657550405552829,"94":0.002775078290955625,"95":-0.16332835748283966,"96":0.1098026858452709,"97":-0.09552037379847142,"98":-0.010692555584877823,"99":0.26828175230259166,"100":0.1794647934522736,"101":0.006366427229714862,"102":0.16186992727394478,"103":0.06423629219819284,"104":-0.06812591683395243,"105":0.13663012670864882,"106":0.21573488134723193,"107":-0.15317314617624875,"108":-0.1943807054692206,"109":0.03056653002728421,"110":-0.17320592011700492,"111":0.042833609505672054,"112":0.006712580891934827,"113":0.0818681621307995,"114":0.016798001421971964,"115":-0.04108432176025517,"116":0.11750887966263926,"117":0.11434339408678018,"118":-0.026107837006077654,"119":-0.15401437965531267,"120":0.08937208088210491,"121":0.24096621879814967,"122":0.13087207073383744,"123":0.11863449062393387,"124":0.17675664513993194,"125":0.07049611617520236,"126":0.2626180117776996,"127":0.33677343356693956,"128":0.4600145419886056,"129":0.3449437972330407,"130":0.3010822028945946,"131":-0.04098379203634228,"132":0.13582568439005877,"133":0.05508973287937185,"134":-0.06604361929424184,"135":-0.23335958467599854,"136":0.029610090321500894,"137":0.04691255658213477,"138":-0.10402161762548344,"139":-0.137515414438505,"140":-0.1862408582886392,"141":-0.1845018895827714,"142":0.09055739506541921,"143":0.12839101936467434,"144":0.061109398962799634,"145":0.031573408186183524,"146":0.243606677919857,"147":-0.026511039249507203,"148":-0.24239782481513608,"149":0.10178547850095586,"150":-0.0280097973672236,"151":0.10174312748871336,"152":0.42337868625700564,"153":0.21254130370282712,"154":0.6526725551617704,"155":0.310680515774066,"156":-0.06327860197725468,"157":0.3603864277359636,"158":0.04217155627993211,"159":0.43245279839344625,"160":0.16599815103441704,"161":0.04286026733844312,"162":-0.047721114842101245,"163":-0.3586929312177072,"164":-0.15385026216624648,"165":-0.12024489492838895,"166":0.009750036351207664,"167":-0.12330139043793437,"168":-0.15552475866702667,"169":0.012913196161477625,"170":0.12898182466114472,"171":0.0065133418600064755,"172":0.1381438666183189,"173":-0.0829160937058227,"174":-0.06506669819239136,"175":-0.23114024677406775,"176":-0.16885446870768336,"177":-0.055449616774857186,"178":0.08435892210624503,"179":0.1079287197953979,"180":0.043746030798137776,"181":0.6130707824210692,"182":0.40791038777656524,"183":0.6030771601703786,"184":0.2762883489146068,"185":0.21420129914417219,"186":0.2688068636574662,"187":0.2954321177063736,"188":0.3068347956795972,"189":-0.2640322140448376,"190":-0.09512353315082579,"191":-0.39183343692062156,"192":-0.10190409107888385,"193":0.17643334082810289,"194":0.20524385438768442,"195":-0.16664256472187675,"196":-0.03411370841989997,"197":-0.18078266462760523,"198":-0.11725506455690206,"199":0.0023876857721742595,"200":0.04040530520934642,"201":0.15419031740266848,"202":-0.026269724645547644,"203":-0.15290088300445998,"204":0.2599062736652155,"205":-0.06736432374287658,"206":-0.13499234284547565,"207":0.17149210826849054,"208":0.17245953392320765,"209":0.28949969887139965,"210":-0.10777486610301495,"211":0.36436005505708075,"212":0.49292732422706365,"213":0.29087533812996014,"214":0.14497520371452272,"215":0.5871526614566098,"216":0.5860615883789518,"217":0.023310043105572654,"218":-0.18334065534909402,"219":0.12256217089064439,"220":0.2457355710908287,"221":-0.00026389634036901326,"222":-0.09337253005683312,"223":0.12187010036732171,"224":-0.10763937935682925,"225":0.1540646776984448,"226":-0.04514712176077142,"227":0.009203152252836432,"228":-0.13560671895879833,"229":0.07711535093783517,"230":0.1430510168283679,"231":-0.12867624032969346,"232":-0.07935629452423751,"233":0.13724826979819757,"234":0.107295842648946,"235":0.011408366783365945,"236":0.219679508538809,"237":0.22005075952820083,"238":-0.35130005372185125,"239":-0.16054502649043859,"240":0.18415103169634753,"241":0.1079213440390716,"242":0.42090457519990404,"243":0.15471466114782456,"244":0.11818384549669289,"245":0.16725789792638396,"246":-0.32169228215402285,"247":0.1438241073200779,"248":-0.17626222732969613,"249":-0.275705246089507,"250":0.05556560248302293,"251":0.18412911141714194,"252":-0.10112684808930164,"253":-0.1455925676813884,"254":0.08576986473007527,"255":-0.06424365890496278,"256":-0.04426691175946062,"257":-0.1082846645718012,"258":0.26240752174213716,"259":0.12965926379760648,"260":0.034846729299315364,"261":0.4782785962333198,"262":0.07599681266403664,"263":-0.2945581271290504,"264":-0.10409840717311604,"265":-0.23880152073885139,"266":-0.4024728100898873,"267":0.11284825778327626,"268":-0.09062168716137439,"269":0.21592778997092374,"270":0.20919223551801486,"271":-0.06591541576034629,"272":0.19668608941315058,"273":0.22352851538264448,"274":-0.010364270191504382,"275":0.1353143393017485,"276":0.10182521931890139,"277":0.03898765014042138,"278":0.114821958249439,"279":0.058515901072292376,"280":-0.15066528982263386,"281":-0.10037736865394037,"282":0.09235408670989563,"283":0.14168547903164447,"284":0.24458954088949214,"285":0.3312171390162749,"286":0.25810418976282395,"287":-0.39672722689664663,"288":0.05363537640383639,"289":0.052749254663979034,"290":0.20985557554024514,"291":-0.3148367119916626,"292":-0.0866150779496965,"293":-0.03358921607707605,"294":-0.5268203852959304,"295":-0.4979487006402599,"296":-0.05042046120759944,"297":-0.10411363314967292,"298":0.04668104341705116,"299":0.3831524310519251,"300":-0.052980295723393106,"301":-0.2203986332028769,"302":-0.25698687988837626,"303":0.3721828102103075,"304":0.10122341844692305,"305":0.07131800962149258,"306":-0.07461206383667113,"307":-0.04510529012362499,"308":0.14286612524741965,"309":0.19489051740884672,"310":-0.08651629502678068,"311":0.1831552673550703,"312":-0.0314208737818052,"313":0.07427763437400066,"314":0.19614558703406912,"315":-0.2104927294143009,"316":-0.10752452965806335,"317":0.09077533798282082,"318":-0.32128179411818597,"319":-0.5518881917461873,"320":-0.10750830416244905,"321":-0.5172456041166521,"322":-0.28144563581326054,"323":-0.48073233207660604,"324":-0.0857623141560478,"325":0.012088951289954842,"326":0.24973250952912118,"327":-0.20278366984167365,"328":0.2988027749062394,"329":0.05669989732030008,"330":0.0743180594377005,"331":0.24681720880466385,"332":0.07503758085142825,"333":0.21933653019029448,"334":0.13321014157625088,"335":0.06925007717982645,"336":-0.025286943079674107,"337":-0.05932843558475111,"338":-0.04788217457337665,"339":-0.01742950618233277,"340":0.015989185955591463,"341":0.12978867270247343,"342":-0.04295656365092073,"343":-0.3544656843813959,"344":-0.30411024992368335,"345":-0.25139878743257216,"346":-0.005992711458524683,"347":-0.4653513564696579,"348":-0.25027597993689266,"349":-0.27747755261795204,"350":-0.1736937039799544,"351":-0.180663934462543,"352":0.06739726626807753,"353":0.14011456274457537,"354":-0.1699336855284116,"355":0.06434150407220918,"356":0.02653647436467605,"357":0.027338820559207347,"358":0.426040091350723,"359":0.378467212253738,"360":0.1303189279354647,"361":0.10054380059322013,"362":-0.0016936194303016638,"363":0.03006395038042811,"364":0.0047004945343715465,"365":0.0381843734583546,"366":0.20389900300140018,"367":0.1900409824647315,"368":0.19590584694624752,"369":-0.016783160222589424,"370":0.024192072541872972,"371":-0.08083895448074295,"372":-0.06645605519680163,"373":-0.3938036732595858,"374":-0.41669893584815876,"375":-0.7131261763199287,"376":-0.5884432284091001,"377":-0.2824334492361067,"378":-0.0000491397860466428,"379":0.14225525521417592,"380":0.028788305180017765,"381":0.15793377106364223,"382":-0.011420639098132675,"383":-0.5034267913537113,"384":0.024872163889759706,"385":0.026050255853511506,"386":-0.11563702360755052,"387":0.01678062554484527,"388":0.015385283769054856,"389":0.08996221732817185,"390":-0.049769765246834685,"391":0.06908583467890095,"392":-0.13817065129293404,"393":-0.1838719153489927,"394":-0.06982859295770348,"395":-0.03412056209542765,"396":0.034623994312713006,"397":-0.15535739043542285,"398":-0.008392688313946916,"399":-0.1498623618254061,"400":0.059317679337203486,"401":-0.45818307631502037,"402":-0.18500922560260896,"403":-0.11663694281207296,"404":-0.4659617947545076,"405":-0.056643395964621056,"406":-0.26514521755358117,"407":0.13181892344729768,"408":-0.09483736269661139,"409":-0.05567137896023477,"410":-0.050391465935784925,"411":-0.35699246070029034,"412":-0.30113249876632875,"413":0.111782683301241,"414":-0.2846899253340544,"415":-0.13963261054629253,"416":-0.13329405841753467,"417":-0.1921558181381565,"418":-0.041779323643072006,"419":-0.0809599390980945,"420":-0.07862484314834246,"421":-0.0430290762731608,"422":-0.10447664543260464,"423":0.0919419577552864,"424":-0.3037296705740771,"425":-0.02090062342329102,"426":-0.04310858640135673,"427":-0.45679104883569144,"428":-0.1323399066362536,"429":-0.5404701813951068,"430":-0.3193583345700446,"431":0.007824021381365471,"432":-0.2140189766552064,"433":0.04859506550930356,"434":0.3573800056604977,"435":-0.24248394777916502,"436":0.03972706226262459,"437":-0.49231650083148953,"438":-0.3737008578842072,"439":-0.364658266725483,"440":-0.3232217949207793,"441":0.02376558721566243,"442":0.12432504982638007,"443":0.018170478666985686,"444":0.015796091930458302,"445":-0.17505686262972703,"446":0.009230557717483141,"447":0.14462827044081117,"448":-0.06598148397308412,"449":-0.10705886931635158,"450":-0.17376957640662494,"451":-0.1621072843799027,"452":-0.03355812160559778,"453":-0.09955866518396847,"454":-0.2206194078227532,"455":0.11665026433597413,"456":0.23018086852169686,"457":0.05701452673138641,"458":-0.22672642569904095,"459":0.015241248259129307,"460":-0.07078724211500963,"461":0.2273675663373705,"462":0.5806226517727063,"463":-0.2069577524777145,"464":-0.45294388389311446,"465":-0.9116091278911839,"466":-0.4950457272179772,"467":0.047004784064764944,"468":-0.04442634685638924,"469":-0.17904336758966463,"470":-0.0393975680589928,"471":0.06319918279719797,"472":0.2030005585353484,"473":-0.06880092053405783,"474":-0.1423230177720731,"475":-0.1371184525180881,"476":-0.051679558237185674,"477":0.06376627553343905,"478":-0.20042372605719108,"479":0.061439581234002644,"480":0.08916615863524567,"481":-0.14668505716481423,"482":-0.18863471201340337,"483":0.39638610904239474,"484":-0.008398516381828081,"485":0.28328476173946404,"486":0.26098263966878116,"487":0.3211557187117233,"488":0.28919656744683636,"489":0.43460698545273696,"490":-0.10359490700924955,"491":-0.09722373078946056,"492":-0.5761701568669712,"493":-0.6624117013899735,"494":-0.44566187902195464,"495":-0.13077398046798813,"496":0.5186917708110377,"497":0.29112946968270703,"498":0.16457284616727835,"499":0.08631364361157862,"500":0.14007448033389971,"501":-0.006503468641435582,"502":-0.004840861031870002,"503":-0.16112696185940198,"504":0.17417954374033356,"505":0.17002245015598788,"506":0.015232274702418563,"507":0.01040273684482437,"508":-0.05531250430874719,"509":0.11729143625828573,"510":0.08041504806718429,"511":0.2666924423572036,"512":0.2359185947472907,"513":0.3658888767723961,"514":0.7679523368391545,"515":0.3763692477514938,"516":0.23984282241685903,"517":0.5868763809418411,"518":-0.24063214182720694,"519":-0.4242086670388198,"520":-0.31079318005263473,"521":-0.5505865165084018,"522":0.06864614605569726,"523":0.3858931555260253,"524":0.06820742792137319,"525":0.052561175347883064,"526":0.5025869219290535,"527":-0.08227222544331629,"528":0.08587269635612997,"529":-0.11962950221000895,"530":-0.20516619049870566,"531":0.11354682775493136,"532":0.09844193370121895,"533":-0.13087538517042424,"534":-0.1316660885263703,"535":0.13092695201837734,"536":0.05798908793481825,"537":0.2670678545164631,"538":0.026073786692625365,"539":0.32629626345454404,"540":0.3784895913533803,"541":0.27749430004119696,"542":0.28389032774428347,"543":0.4736465485149455,"544":0.31126909242878326,"545":0.0328884911808521,"546":-0.21471078722738582,"547":0.009156089763369485,"548":-0.1228880764836961,"549":0.07972727793654323,"550":-0.0029373079296551438,"551":0.09693986164489107,"552":0.07641642520118862,"553":0.21840903700184872,"554":0.25561057070167875,"555":0.11041005289727632,"556":0.09962863351562048,"557":0.07966621359643646,"558":-0.0780609523345342,"559":0.04826202350800654,"560":-0.1983626460004646,"561":0.01586862152749011,"562":0.0029187378003294687,"563":0.12290531157323657,"564":0.13204220059462687,"565":0.2914406053918175,"566":0.15037734478395076,"567":0.5456196516334377,"568":0.41572387963566526,"569":0.26686033372475143,"570":0.42181809123579517,"571":0.5661243955228755,"572":-0.005710817271124864,"573":0.2509576891776369,"574":0.007253547970588751,"575":-0.5196722302324136,"576":0.10037659417902293,"577":0.1305041839938793,"578":0.2526577275170205,"579":0.4864114648941596,"580":0.26499767828527665,"581":0.31496710937782685,"582":0.24703880468288217,"583":0.1479493091360344,"584":-0.03471375005834997,"585":-0.11673508534511708,"586":-0.19891079541217374,"587":-0.19747796329397282,"588":0.15853739332377909,"589":-0.12119418032234885,"590":-0.1902035314093698,"591":-0.09533866212568418,"592":-0.04727370765454091,"593":0.28257406663808426,"594":-0.054591325032091464,"595":0.5797357591674359,"596":0.24071744106313192,"597":0.09991879733081935,"598":0.06432243924190933,"599":-0.38258850737799344,"600":-0.3923635083198581,"601":-0.5361480637073093,"602":0.006174977270638452,"603":-0.1827186156964559,"604":-0.015632506185709518,"605":0.16420091650825255,"606":0.34965402910379717,"607":0.46008757743814693,"608":0.18380907068468955,"609":0.17311091061166778,"610":0.0864001815747924,"611":-0.09848285674515514,"612":0.16138949464819127,"613":-0.15880241572133852,"614":0.03882361539348139,"615":0.19486825365199295,"616":0.02189258503137248,"617":-0.06827715705578816,"618":-0.02671743767978158,"619":-0.0008871160548210096,"620":0.07996447616664012,"621":0.12956648909856777,"622":0.16256130301667882,"623":0.2844251356845636,"624":0.24211782120127937,"625":-0.2701645663635177,"626":-0.4761330988416035,"627":-0.06712062686936685,"628":-0.27062195095780084,"629":-0.17386625760994767,"630":0.4878045184996564,"631":0.28219881180460676,"632":0.47768553993651147,"633":0.218058966971336,"634":0.42635907243136706,"635":0.41863420516090527,"636":0.2785455056338498,"637":0.20804765543222153,"638":0.18363496100384874,"639":-0.19767224014144108,"640":0.03139254270201764,"641":-0.010267628941587548,"642":-0.005029989766829687,"643":-0.07643333957853393,"644":-0.17221423277628478,"645":0.0720322579384387,"646":0.0652446387499549,"647":-0.10130929674111147,"648":-0.0401519759165145,"649":0.11855247044610324,"650":0.1151653468149676,"651":0.09517182029857667,"652":-0.29822721857318585,"653":-0.2382849966875024,"654":-0.39835235607716174,"655":-0.21260563525407516,"656":0.1346795910224831,"657":0.0017041644640205622,"658":0.016011533281545417,"659":0.25233141045967816,"660":0.4944017143950759,"661":0.2608582483558681,"662":0.3196471401600732,"663":0.07991403073015749,"664":-0.02294505968029307,"665":0.23121265479241057,"666":0.16268483105812198,"667":-0.09245133535120156,"668":0.08569215222517124,"669":0.07240379855964375,"670":-0.058799925690667804,"671":-0.0015934974445951933,"672":-0.16300897307659598,"673":0.07907476868353908,"674":-0.06376379233026115,"675":-0.053695466910566494,"676":-0.11340823975948876,"677":0.05830087416208558,"678":-0.0017997850799328446,"679":0.05830099895848697,"680":-0.06388930261450598,"681":-0.2281770010626183,"682":-0.313025172567514,"683":0.07424462273805009,"684":0.06661817498350711,"685":0.35719552594658355,"686":0.15962759433156753,"687":0.4710140314922883,"688":0.008850492189561686,"689":0.06811317325678887,"690":0.27527555259969905,"691":0.1607798061624451,"692":-0.18657044761701572,"693":-0.1593060888871123,"694":0.16529085650784453,"695":-0.07272800423072504,"696":-0.11140830379816995,"697":0.10391067497651184,"698":0.12793717851413533,"699":-0.1935559639473115,"700":0.010701736192843564,"701":0.14665358583365623,"702":0.12937238133796675,"703":0.1219952024804548,"704":0.08821528935479765,"705":-0.21615713085665803,"706":-0.05901075790596689,"707":-0.10329288818158947,"708":-0.025804714079974003,"709":-0.10630940830790687,"710":0.09344077893640472,"711":0.20511143747175575,"712":0.20760861196328256,"713":0.03475067987281453,"714":0.22672708474908085,"715":0.16850742814150846,"716":0.05979917911500633,"717":0.18263034690235702,"718":-0.07301478881586941,"719":-0.009447174792352183,"720":-0.18569545234037943,"721":-0.04857793481258365,"722":0.07001788674374332,"723":-0.038963335879096186,"724":0.18588117066283485,"725":0.0328657630967939,"726":0.1631484370700097,"727":-0.04047226002945567,"728":0.13351681175822805,"729":-0.04563965929968408,"730":0.08989463612239401,"731":-0.1338752101077251,"732":0.16833118094541458,"733":0.03654878465797776,"734":-0.004824692931056049,"735":0.23595696100106592,"736":0.2124653067860813,"737":-0.04363001933122939,"738":0.17538821660821374,"739":0.0899999922810256,"740":-0.02909000637872804,"741":0.007740097413134535,"742":-0.18413596886699413,"743":-0.17962377638632102,"744":0.005200843930490502,"745":0.1338493102438429,"746":0.13378651570990807,"747":0.17348588038743545,"748":-0.02658054653170417,"749":0.18648904982383605,"750":-0.04034204646875677,"751":-0.0013228810375707021,"752":-0.008197998385071792,"753":-0.07416206916210974,"754":-0.1641655560470821,"755":0.09193997190212844,"756":0.19995930893238095,"757":-0.14511165041372553,"758":-0.03253821330036333,"759":0.11447927887133336,"760":0.1421262960532702,"761":-0.06377376360390317,"762":-0.17931395551479692,"763":-0.07426339922062494,"764":0.0767804337668038,"765":0.08591674927737848,"766":-0.1407205670119692,"767":-0.13944691624170155,"768":0.15663133942760218,"769":0.17648128893667234,"770":-0.08984918637612486,"771":-0.15130919749901142,"772":0.17271498154013473,"773":0.012504029705840953,"774":-0.11471296691250017,"775":-0.17027149422066476,"776":-0.0587527286242403,"777":0.021600888339198827,"778":-0.03560224237876339,"779":-0.1143644079769036,"780":0.13051177513768225,"781":0.1663668542605004,"782":-0.029517099738827657,"783":-0.1105121981193161}},"1":{"bias":0.07349095710072437,"weights":{"0":-0.06309187869519794,"1":-0.03316882191993065,"2":-0.02573415615874114,"3":-0.0900019279645842,"4":0.020304571032584928,"5":0.1848459329629753,"6":0.09110601896962145,"7":0.056732303934702355,"8":-0.1201656116396384,"9":-0.023682850189389454,"10":0.04598644405791327,"11":-0.036172114742713035,"12":0.026776207617355052,"13":-0.1540764258988006,"14":0.015507222935266712,"15":0.09073187335410804,"16":-0.1289450647861471,"17":0.047992263418593945,"18":0.11125115791448409,"19":-0.0039737071450027805,"20":0.06295180608775625,"21":0.046002267818412074,"22":0.0724908599518157,"23":-0.015776665456454175,"24":-0.07274877593558102,"25":-0.08707515349936418,"26":0.11427286719393209,"27":-0.1335108603484767,"28":-0.16003831989418488,"29":-0.08755494839675607,"30":0.07864696533774584,"31":-0.19177843918927745,"32":-0.08954443004531881,"33":0.1850893841736177,"34":0.09683859138011974,"35":-0.18335331809204924,"36":-0.07109099137961902,"37":-0.18260565496424888,"38":0.1588071321532297,"39":0.18971839481905747,"40":-0.20188969698137876,"41":-0.16448184585438833,"42":-0.18020628457449447,"43":0.07010043451650064,"44":0.0987725832254085,"45":-0.1750432457030072,"46":0.01622781831505491,"47":0.10942522148481897,"48":-0.17671728418180951,"49":-0.08852872459891287,"50":-0.07454787886941909,"51":-0.14372087931880143,"52":-0.14629066746873837,"53":0.04961674883591227,"54":-0.0032144545618545683,"55":0.14328632354659415,"56":0.11945750312740089,"57":0.031699485291584395,"58":-0.13117286574776488,"59":0.15882371813540158,"60":0.1882371544643166,"61":0.1429018143972643,"62":0.1492152013430928,"63":0.05865965322249417,"64":-0.16790074835579594,"65":-0.03265472160276442,"66":-0.07134411280056657,"67":-0.1386178522384376,"68":0.08945479635770395,"69":-0.19110786560087845,"70":-0.06452058885528551,"71":0.11985220993147591,"72":-0.0987799329144159,"73":-0.1107192692173946,"74":-0.1135363981121657,"75":0.13230740762321636,"76":-0.13636848747405217,"77":0.001755325310940765,"78":0.09283901299950405,"79":-0.04028183673401145,"80":-0.16183221714721172,"81":0.07605490662049252,"82":0.1079835512097082,"83":-0.04842041512821807,"84":0.009093467052336462,"85":-0.0053388315562081234,"86":0.10407501182261925,"87":-0.14535727017280467,"88":0.07836401166361684,"89":0.02756170982378382,"90":-0.1722432754455393,"91":-0.1738300705680135,"92":-0.0862471921569247,"93":-0.0003142530977482874,"94":-0.109618728985911,"95":0.026545819235027027,"96":-0.08832964804405206,"97":-0.20410605483183247,"98":-0.21474027310654037,"99":0.1743094679997053,"100":-0.1491932912738582,"101":-0.06125838267306441,"102":0.11003464198445705,"103":-0.05498527209321846,"104":-0.17104854047693246,"105":0.020484097586715867,"106":-0.22444560837194574,"107":-0.25663989538210746,"108":-0.10833683858749416,"109":0.0483787604634741,"110":-0.13646840990273496,"111":0.14118703825692602,"112":-0.16408351054077316,"113":0.1485716162073611,"114":0.04718665132961464,"115":-0.033654657848072755,"116":0.0729293394869599,"117":0.0674393025087693,"118":-0.33113128324059893,"119":-0.11724984932032011,"120":0.02677683000459192,"121":0.012773140833235443,"122":-0.14840483692104703,"123":-0.25602922775479975,"124":-0.0410364447966934,"125":-0.27951322997150807,"126":-0.2792563952107953,"127":0.01739225909146126,"128":-0.1817941741939655,"129":-0.17747539704867887,"130":-0.17371644414973048,"131":-0.39821373673339455,"132":-0.1896275833714286,"133":-0.09920740166126217,"134":-0.36282920628720705,"135":-0.1414516246718262,"136":0.051398676690130075,"137":0.02059376883854193,"138":-0.09226959301057064,"139":0.04354386168897745,"140":0.17916267616020704,"141":-0.15874171992303215,"142":-0.12609543691053882,"143":-0.14876464675043108,"144":-0.19133473457241335,"145":-0.20315040196528372,"146":0.03503254085282812,"147":-0.14991599077039233,"148":-0.210979937409705,"149":-0.2423597742720246,"150":-0.5707370669446958,"151":-0.21877796829308688,"152":-0.3905691226988707,"153":-0.31430129589976297,"154":-0.2655042143337282,"155":-0.3444233315649995,"156":-0.5829413902077151,"157":-0.43217175794391754,"158":-0.38110062187316873,"159":-0.6611225620160028,"160":-0.4501016343099456,"161":-0.5787575664941527,"162":-0.349456406931354,"163":-0.18310859772843277,"164":-0.11036208704344434,"165":-0.055443315825754284,"166":-0.11720394468657161,"167":0.09312250917880105,"168":-0.13159243239664065,"169":0.13222405210151983,"170":-0.07854470771584275,"171":0.016878035809819336,"172":0.003963807683216139,"173":0.13100720151145337,"174":-0.07095117776123104,"175":-0.4258324919965562,"176":-0.08315899536016344,"177":-0.06276269982187636,"178":-0.3688264028759069,"179":-0.36099184459511285,"180":-0.23306279295306928,"181":-0.3838714948938067,"182":-0.4911702026308736,"183":-0.04049338280960402,"184":-0.683149388303325,"185":-0.6522327187477571,"186":-0.5189905486246634,"187":-0.9173831677951902,"188":-0.6199399774428905,"189":-0.41384947572590897,"190":-0.22190080879294333,"191":-0.12495199227043832,"192":0.28219202142514954,"193":-0.056808161975520056,"194":0.053618776032265475,"195":-0.1767661437169866,"196":0.009096660104902815,"197":-0.050961212434891524,"198":-0.14730581817136423,"199":0.13234553181411382,"200":0.14777623003941912,"201":0.06960730312068235,"202":0.05808879961163874,"203":-0.14826174866113379,"204":-0.23133953787706008,"205":-0.4756315892015187,"206":-0.19652631420359412,"207":-0.2889538642826071,"208":-0.12046897212800695,"209":-0.4711284081966752,"210":-0.8679000748900132,"211":-0.6061110036291828,"212":-0.7997553203515861,"213":-0.609165248873604,"214":-0.1154939559569149,"215":-0.2566720657617775,"216":-0.23214272141850822,"217":-0.026857231844156934,"218":0.1934075190710684,"219":0.04996663344643927,"220":0.26220164754309705,"221":0.31070608111351594,"222":0.20328854598960433,"223":0.05461638035896146,"224":-0.037170116826131305,"225":-0.11550222184626517,"226":-0.11623535461470222,"227":0.1785158006459564,"228":-0.08186232133171964,"229":0.025564912582419986,"230":-0.1442010666793597,"231":-0.04810857762898719,"232":-0.10514106970923308,"233":-0.2195696950031016,"234":0.11150954615017074,"235":-0.3792640720305024,"236":0.09441636079621847,"237":-0.24541227758234632,"238":-0.1980602498582971,"239":0.019265714329735766,"240":0.10385604590379993,"241":0.36046647746608074,"242":0.11770668101854373,"243":0.4199203029431727,"244":0.3744786617219673,"245":0.5478314512842335,"246":0.14695161335992554,"247":0.12152885167042708,"248":0.441565429666423,"249":0.4473891307930116,"250":0.019048086065063273,"251":-0.010431178463939914,"252":0.09127212994576367,"253":-0.18653448414040477,"254":0.03955973167889027,"255":0.15752469976353706,"256":0.21281380424207588,"257":0.2996596272945655,"258":0.10057663623792405,"259":0.031027611255399875,"260":-0.24057160274433764,"261":-0.19509264538033236,"262":0.23418656823307343,"263":0.35390833287827234,"264":0.3564091465957613,"265":0.006003250677885664,"266":0.40226365089381694,"267":0.8706610329002522,"268":1.2574247560570295,"269":0.6195412935913617,"270":0.5977556315318426,"271":0.15658759186594123,"272":0.30229523908921707,"273":0.17016580300280265,"274":0.20954284562538886,"275":-0.00922834457764809,"276":0.6325059343670606,"277":0.2916373559796497,"278":-0.03007070336925614,"279":-0.14944094694608534,"280":-0.1973255268726545,"281":0.036422928974852,"282":0.1878631995390189,"283":0.047260130143556615,"284":-0.006878756484094773,"285":0.025877437090827002,"286":0.3074225083399405,"287":-0.10065730129808788,"288":0.10409774149362357,"289":0.012073641887367252,"290":0.5228568203018019,"291":0.18627785737401414,"292":0.5014696795182347,"293":0.6269783902518657,"294":1.0971389885373226,"295":0.8490090624672824,"296":0.434582054921616,"297":0.5702893615567128,"298":0.4846041065545604,"299":0.2590804814444764,"300":0.11933945585562356,"301":0.4067923260081741,"302":0.15898045190885812,"303":0.267493247090883,"304":0.4553316548712138,"305":0.2673565735245059,"306":-0.09060648379890936,"307":0.14859528685577272,"308":-0.07919415427061366,"309":-0.14088090828273955,"310":0.032236325229981676,"311":-0.05261214510601599,"312":-0.06648425336669499,"313":0.022351664089306465,"314":-0.13417583733563454,"315":0.1340694675938926,"316":0.45622375187192243,"317":0.11493482628731866,"318":0.1905805095163104,"319":0.5114450061197179,"320":0.4408266578465642,"321":0.5268226020438148,"322":-0.24176971258589516,"323":0.22215674612124522,"324":-0.17846459710361576,"325":0.06055078841840718,"326":-0.3212427613578104,"327":0.36999247971516297,"328":0.21920512246846094,"329":0.6062526492278509,"330":0.3759586117242675,"331":0.13678995441387584,"332":0.5738035811042355,"333":0.04863474550347257,"334":0.04354480681565745,"335":-0.16712139226664782,"336":-0.061145864454887205,"337":0.03050852717929256,"338":0.16405877422330445,"339":0.0674895154190257,"340":0.1213078062127451,"341":0.02267269738577674,"342":-0.29181709353530166,"343":-0.0066166854780592465,"344":0.1321598849971161,"345":0.21866777427028347,"346":0.05431543883412528,"347":0.2356809817971725,"348":-0.14415190622168716,"349":0.052643833646090585,"350":-0.2818405674617259,"351":-0.16349119070520407,"352":-0.23684615518782107,"353":-0.5570925343270439,"354":-0.38051336267546565,"355":-0.1469395382594278,"356":0.25582118644642204,"357":0.09040808015520596,"358":-0.019778573120196905,"359":-0.4156296978790092,"360":0.05677408417477674,"361":-0.06261113889307551,"362":0.011090303694631633,"363":0.1784657618945112,"364":0.1036092606262689,"365":0.13340315958859666,"366":0.06490859723259135,"367":0.06601666236361944,"368":-0.025871618801600105,"369":-0.15032546706862437,"370":0.005971760837033063,"371":-0.19709577449685553,"372":0.15842713806270872,"373":0.4236670528269632,"374":0.2124828982610262,"375":0.30853491205001765,"376":0.04785643966930041,"377":0.035552603691489146,"378":-0.0059107062343045445,"379":-0.10870443121793108,"380":-0.36996812501912535,"381":-0.595595193225272,"382":-0.7883794475603839,"383":-0.41240051462514965,"384":-0.31604306121454595,"385":0.13718537853737897,"386":-0.17305877388215504,"387":-0.3246201510396385,"388":-0.11409885419973574,"389":0.11509453534342093,"390":-0.1421292432877312,"391":-0.15602003989184354,"392":-0.029701735752757502,"393":-0.11824341437486866,"394":0.18744934872418467,"395":-0.0466819892138965,"396":0.06741136775887463,"397":-0.16126723368260099,"398":-0.16415610406757242,"399":-0.3978353749737351,"400":-0.059757716039652395,"401":0.4194275637619756,"402":0.007778382363828065,"403":0.009802482711433773,"404":-0.002837644222580322,"405":-0.5969497179437631,"406":-0.1782771778054554,"407":-0.09439646392242257,"408":-0.8531066196581802,"409":-0.13128279060889317,"410":-0.34054572530774135,"411":-0.2734891408704241,"412":-0.09398544780726961,"413":0.2812286207549195,"414":0.32864347295517016,"415":-0.12529842741347952,"416":-0.09098832956987386,"417":0.07791761183618866,"418":0.08927665766371833,"419":0.1671326998743507,"420":-0.19494613950065115,"421":-0.17018227605885264,"422":-0.08013013299163192,"423":-0.1406627869307765,"424":0.03321636429971057,"425":-0.14049943716842164,"426":-0.10524133807165145,"427":-0.08009289522917763,"428":-0.4728349578740156,"429":-0.2565197749769155,"430":-0.24552413015668642,"431":-0.43908660311517606,"432":-0.5981111000737038,"433":-0.5674554562027931,"434":-0.6822529184752288,"435":0.02002232097397622,"436":-0.42562332528356445,"437":-0.49676838618931163,"438":0.24734922446411708,"439":0.14023167985027457,"440":-0.0753239783043952,"441":0.14575265176977137,"442":0.4240492172290725,"443":0.21852074102504818,"444":-0.099039282964096,"445":-0.092058299506723,"446":0.013169256662413462,"447":0.17187521376630194,"448":0.03045088033498794,"449":-0.011422096407312926,"450":-0.02057852502413331,"451":0.034719602665010396,"452":0.27789863121225816,"453":-0.22148754444511423,"454":0.19170924027168643,"455":0.03336833574015998,"456":0.1023660810653558,"457":-0.02134200557884466,"458":-0.022599476016563584,"459":-0.015773804417771528,"460":-0.20525081119408298,"461":-0.39219773176346684,"462":-0.5069669280269508,"463":0.13367195141276117,"464":0.253097683346353,"465":0.021063212689917895,"466":-0.3139986932173226,"467":0.17893125715767508,"468":-0.12359672914563488,"469":-0.2355015778776256,"470":0.18817254552730572,"471":0.041222352750080786,"472":-0.019823772122003036,"473":0.006949051287709735,"474":-0.041745529611733834,"475":0.11955436661017814,"476":-0.053262472361150975,"477":0.1356842175079806,"478":-0.029111312439198397,"479":-0.1670505108523753,"480":0.029944977790298498,"481":0.10219522543896191,"482":0.3019973238782478,"483":0.26477855791938526,"484":-0.413345587369657,"485":-0.08430209313198277,"486":0.15863316213143341,"487":0.2097673311855899,"488":-0.10612782359273429,"489":-0.07405078443737634,"490":-0.3088375463526009,"491":0.08200717616939918,"492":-0.02549014263452447,"493":0.006639631840500769,"494":-0.4210230560595556,"495":-0.09613624489439217,"496":0.11930462015326768,"497":-0.03874765726280459,"498":0.023429576233673213,"499":0.23725827607102834,"500":-0.11850180844692686,"501":-0.1510928428032219,"502":-0.02435414910227043,"503":0.1958517711659763,"504":0.10902608442646394,"505":-0.1456642941405396,"506":0.08462010800865942,"507":0.01865990740747305,"508":0.12193339628485018,"509":-0.3151301225543367,"510":-0.46071018383037704,"511":0.006095160652712358,"512":-0.0876317627901188,"513":-0.19635826523271288,"514":-0.2971151982054776,"515":0.04193071071159644,"516":-0.4411252668600648,"517":0.006443794173237227,"518":-0.14068963778697421,"519":-0.37750481635279637,"520":-0.291063290647525,"521":-0.033920612877738884,"522":0.09677151139946288,"523":-0.00806489968137685,"524":0.050717584578513865,"525":-0.14995178850490615,"526":-0.251805507543053,"527":-0.16255327862621285,"528":-0.34162976337888934,"529":0.13108810363841963,"530":0.1877281423130733,"531":-0.013329812314206938,"532":-0.015145875483157573,"533":0.04128786920517741,"534":0.023151934119390368,"535":-0.0801646664299569,"536":0.10647707854704613,"537":-0.32391996655232197,"538":-0.008275201190402494,"539":-0.055056374053007825,"540":0.13868961856541642,"541":0.07814563388006007,"542":0.20277043217483234,"543":-0.07789310387262069,"544":-0.05428265720548748,"545":-0.2880498718909835,"546":-0.22917595244233552,"547":-0.0357073387449702,"548":-0.2093132801513442,"549":0.16256719274935608,"550":-0.030825392616885442,"551":-0.030510947473583204,"552":-0.1522324110896881,"553":-0.43892847573474497,"554":0.04872039780643119,"555":-0.163203542085635,"556":-0.1256390905454774,"557":-0.05233369306743598,"558":-0.01693265645436008,"559":-0.018565450333584366,"560":-0.17553314757905902,"561":-0.11633846518191908,"562":-0.1684611497268505,"563":0.055705292041529506,"564":-0.08268607673405758,"565":0.07957556124242977,"566":-0.29899698840623673,"567":0.0707599315318232,"568":0.01640933732302832,"569":-0.03702253184120377,"570":-0.1366094876528394,"571":0.22580022921205356,"572":0.12685605731868926,"573":0.15004025290098724,"574":-0.2374965460216816,"575":-0.3529725571920853,"576":-0.007918628361328839,"577":0.4138431597285795,"578":-0.17040760187013865,"579":-0.17898875049610102,"580":-0.20626197929175633,"581":-0.12503740724546297,"582":0.04953791340168127,"583":0.11231182307360213,"584":0.18209917459672184,"585":0.08104084149092394,"586":0.1899947695349343,"587":0.11546220083239112,"588":-0.011575035027293457,"589":0.104438922239328,"590":0.18776388278149966,"591":-0.23117343798510487,"592":-0.33308932794983087,"593":-0.3755879887386192,"594":0.10010197269212864,"595":-0.12386252340245239,"596":0.22886921231679316,"597":-0.08141722037701866,"598":-0.5496793894002057,"599":-0.4773055297609905,"600":-0.01080877357760338,"601":-0.034223045276468744,"602":-0.10498493016306687,"603":-0.2516991438380933,"604":-0.07556138510611424,"605":-0.013681274143117138,"606":-0.07173039433989284,"607":0.19374702927768164,"608":-0.29819850407211407,"609":-0.08942390997835428,"610":-0.15597691395439062,"611":0.05865491853141385,"612":0.17201391655371434,"613":0.1231814623474351,"614":-0.052335467992195156,"615":-0.18081142819499807,"616":0.12150059353400139,"617":0.1929200048344461,"618":-0.20086752892013057,"619":-0.18441397105658394,"620":0.08604907336415162,"621":-0.2009673334848075,"622":-0.14911107506836982,"623":-0.0778394696030663,"624":-0.3284830163809617,"625":0.20751670546791792,"626":-0.32636563825282305,"627":0.09218280947543588,"628":-0.0429770840352841,"629":0.06407735700725031,"630":-0.069239036883716,"631":0.34705464738768477,"632":-0.09644507008916449,"633":0.3355185832493371,"634":0.27996347765663354,"635":-0.03551838473658263,"636":0.08708981771914502,"637":-0.17661694924348004,"638":0.026184646624425118,"639":-0.04014888225336051,"640":0.08410754453639913,"641":-0.013630742281824771,"642":0.15229738170271565,"643":-0.0030631457132384854,"644":0.18522036863435087,"645":-0.006733512410222187,"646":0.15529464246847677,"647":-0.000987278768431782,"648":0.12423669078432553,"649":0.10143540572945037,"650":0.08702131227944168,"651":0.1996646225070882,"652":0.028842848505768095,"653":0.006255488485823349,"654":0.022162892390224332,"655":0.04262510486924838,"656":0.04385805829163627,"657":-0.09454764085825684,"658":-0.05431020575545506,"659":-0.04634783870782968,"660":0.024416872455884094,"661":0.048391417650277414,"662":0.037015669917057244,"663":-0.38555393175361685,"664":-0.3098710115278195,"665":0.02426154636337247,"666":0.060693439704343974,"667":-0.0005849086234871916,"668":-0.1644445489077502,"669":0.12362122498562406,"670":0.10999460533439898,"671":0.00720271828135477,"672":-0.00397385368064293,"673":0.0344160259081315,"674":0.0991086805543189,"675":0.09911131703410732,"676":0.16768855318925271,"677":0.21823270098002684,"678":0.02935823921059788,"679":0.09153149082703982,"680":0.18312108058053198,"681":0.15536692354626472,"682":-0.048814325708283805,"683":0.13844555780239481,"684":-0.24765794795146506,"685":0.013457194366214502,"686":-0.18284573225734815,"687":0.032861079680374564,"688":0.06776167947621597,"689":-0.005697398879382979,"690":0.0613497472768398,"691":-0.021322654732803464,"692":-0.08318795343189493,"693":-0.01931289620176211,"694":0.15974225192876046,"695":-0.09426706679016322,"696":-0.07998920214032318,"697":0.10647661541841011,"698":0.1858710055257733,"699":0.1088105839347156,"700":-0.17327288433145516,"701":0.16231610131154,"702":-0.16421428936888285,"703":-0.1832703395308677,"704":-0.062237536796119035,"705":0.0331460865808181,"706":-0.10945621600060514,"707":-0.18257678195806373,"708":0.24811856648897657,"709":-0.08200647127233701,"710":-0.13820793210609433,"711":-0.3765298900729326,"712":0.08820739504065755,"713":-0.05430024033365002,"714":-0.12325791935563374,"715":0.21491728565957652,"716":0.41919710349861283,"717":0.27748252600109236,"718":-0.15243120931113766,"719":0.08101881651521468,"720":-0.0472345223571602,"721":0.1297207918626802,"722":-0.11967541023302555,"723":-0.04789244342933031,"724":-0.17378152116334605,"725":0.023368995009505872,"726":-0.13142211071949444,"727":-0.18718263838614782,"728":-0.16277294979201448,"729":0.06418250012755128,"730":-0.15718728535695625,"731":-0.030010650233358943,"732":-0.04823326071039681,"733":0.011606975907405361,"734":-0.1656007199084937,"735":0.059230314281776344,"736":0.03659669842588642,"737":-0.06201930471762879,"738":-0.12125832249609851,"739":-0.1935536083937383,"740":-0.14757811919081845,"741":0.19520487773448822,"742":0.1677632866980137,"743":0.02851698789023819,"744":0.25266512420187703,"745":0.1618558348991929,"746":0.1504865366443951,"747":-0.04565483205537792,"748":-0.0219819758485554,"749":-0.01140907341842033,"750":0.11973185726531146,"751":-0.18226069463589903,"752":0.05896633272587415,"753":-0.04850114427629765,"754":-0.025430270328667598,"755":-0.15919017414014489,"756":-0.1364862675655205,"757":0.15013460186339173,"758":-0.1411811092688959,"759":-0.17957916769680546,"760":0.13344411524455024,"761":0.1883914829435222,"762":0.1404043640113602,"763":-0.08912641781164003,"764":-0.06177547704363041,"765":0.1237521016436039,"766":0.06604554720497109,"767":0.0034674089285387094,"768":0.17309158641133318,"769":0.09429496699037818,"770":0.14830590373743238,"771":-0.023381625790390402,"772":-0.07152392594233081,"773":0.04926348587224275,"774":-0.19441706145664492,"775":-0.1667545681949862,"776":0.0562792389442025,"777":-0.03765763309758698,"778":-0.14942507463626298,"779":-0.004260067088414754,"780":0.12075932261712341,"781":-0.02130994201997788,"782":-0.10193239594012962,"783":0.19858996641510301}},"2":{"bias":-1.0892054506067752,"weights":{"0":-0.11665899637905613,"1":-0.12412233417587437,"2":-0.09117643060631204,"3":0.020034765420976264,"4":0.1801196431102559,"5":-0.017982634487989202,"6":-0.05461377670176279,"7":-0.05421821879135341,"8":0.0910465362387276,"9":0.04324995207936916,"10":-0.031364432313741364,"11":-0.14047571934863115,"12":-0.0030238262131510873,"13":0.08035068545877076,"14":0.0980651658715413,"15":0.046193764560087835,"16":0.04973689422021951,"17":-0.019915697255678294,"18":0.04400292905586928,"19":0.12250650410857783,"20":-0.1887141690172463,"21":0.07539236371926716,"22":0.04925931266427108,"23":0.0754925377365,"24":0.06883533683552168,"25":0.008502078264976898,"26":-0.11308924562296979,"27":0.0912550943800311,"28":0.029189797720789723,"29":-0.1729382353730471,"30":0.08110553199661474,"31":-0.13118654032667287,"32":-0.15001888673506852,"33":0.09162397249676246,"34":0.13295206747901042,"35":-0.016972753693238377,"36":-0.08530909660594255,"37":0.1311368846148477,"38":0.0061733162917617665,"39":-0.09597422053672876,"40":-0.0976019222470648,"41":0.13084503209964352,"42":-0.007220155612610604,"43":-0.18982510468337863,"44":-0.052656397746468075,"45":0.15894478872928744,"46":-0.15876046708941477,"47":-0.10976137164995083,"48":0.12486223624725054,"49":-0.0886217314121515,"50":-0.132815159336468,"51":-0.1899352826167174,"52":0.07944279349951194,"53":-0.03524223534465304,"54":0.14011290661542025,"55":0.011140137620147789,"56":0.15714369929630817,"57":-0.07568722067974623,"58":-0.19441086480929146,"59":-0.1570280266010829,"60":0.08122237994938447,"61":0.014796430097615332,"62":0.0387892774054777,"63":0.12178457647169168,"64":0.0257590397481204,"65":0.0589299713079754,"66":0.021878004182377075,"67":-0.008642426068334616,"68":0.1569955846833518,"69":0.19796718341541458,"70":0.06013464723186817,"71":0.09920157010051604,"72":-0.11929961531033587,"73":0.0754024829036468,"74":-0.06651755380144726,"75":-0.013861769707358423,"76":0.18471824162232361,"77":0.20034732206809083,"78":-0.04011730766614034,"79":-0.08278850455405079,"80":-0.05301474319749103,"81":-0.09386466325826373,"82":0.14829139537381092,"83":0.18588845091664846,"84":-0.17203245305565532,"85":-0.013251942222771346,"86":0.13169586979107156,"87":-0.072226913451689,"88":0.1119255580221516,"89":-0.10327654446804928,"90":-0.05226334096330209,"91":0.19573601403470606,"92":-0.17238877910165326,"93":-0.002153219014971246,"94":-0.20091220930164266,"95":-0.1250092630857673,"96":0.11185605885896525,"97":-0.22214401806814899,"98":-0.13344906086550548,"99":0.3197681356771904,"100":0.3957353437475227,"101":0.31785080047779357,"102":0.20274047399535225,"103":0.13454931173287998,"104":0.2263417069870753,"105":-0.05641934227066406,"106":-0.12929144725299765,"107":0.13039789890066716,"108":0.05432222000130366,"109":0.11960255070527975,"110":0.16910508886456732,"111":-0.06196714626117075,"112":-0.18630708929285547,"113":0.17440515851708716,"114":-0.09941655953219763,"115":0.00995747015163495,"116":0.11301590923681562,"117":-0.08418560442441501,"118":0.04100514826961452,"119":0.08901869871711458,"120":-0.051033673435786665,"121":-0.19336875362908462,"122":0.1326223491026704,"123":-0.08143147443014978,"124":-0.2979079458184883,"125":-0.3564872450418627,"126":0.002097417920513422,"127":-0.17342731601184372,"128":-0.07609813204977829,"129":-0.07367032485654972,"130":-0.19109475627316855,"131":0.16341862037984947,"132":-0.04369544254015225,"133":0.050682448384481264,"134":0.009250572451977392,"135":0.02054999895677722,"136":0.1966324272150717,"137":0.16848523447341823,"138":0.0312757470080869,"139":0.08529706770510914,"140":-0.14357216855118687,"141":-0.03146953534799096,"142":-0.056486086150477205,"143":0.06950647760383134,"144":0.08461936538822303,"145":0.01932566049386132,"146":0.11922039948071186,"147":0.05828317124205777,"148":0.004951552770583521,"149":0.03887840753017395,"150":0.046740530064776215,"151":-0.012685880457563406,"152":-0.07206874324266466,"153":0.007354988336384137,"154":-0.10559520452090972,"155":-0.2754045453503354,"156":-0.1212113001046388,"157":-0.1138445694657081,"158":0.40879606117871176,"159":0.1517765647354942,"160":0.10537799893747564,"161":-0.07437128793320036,"162":-0.1015112453210357,"163":-0.11283111901773818,"164":0.3051730763312241,"165":0.0782280132304203,"166":-0.14286428103014984,"167":0.009532876678687685,"168":0.09350079294949615,"169":0.055940421963914466,"170":0.16034434756269622,"171":-0.23139044971227848,"172":0.08885225855010151,"173":-0.0005947534036645404,"174":0.06563873905333455,"175":-0.07290908388802805,"176":0.074339879051801,"177":0.01893343695820789,"178":-0.08878785217469186,"179":-0.14328751079242416,"180":-0.003471396144624967,"181":-0.3067830268193628,"182":-0.037978631117495054,"183":-0.26707476200133723,"184":-0.323107897809621,"185":0.06351538745615797,"186":0.07125917456030482,"187":-0.12017543809120444,"188":-0.09441220212513816,"189":0.1715099897342788,"190":0.17847183804125455,"191":-0.061127299947240685,"192":0.04813203109742211,"193":-0.10500640669337445,"194":0.019400461229143087,"195":-0.03806004588191172,"196":-0.06457107185091901,"197":0.02795986357786877,"198":-0.08051051784445282,"199":-0.07525012918682109,"200":0.10710145980599256,"201":-0.15974933822561685,"202":0.08728175330882901,"203":-0.06487922233603198,"204":-0.20228987592539696,"205":0.0134580757852134,"206":-0.2823788202830764,"207":-0.2403627294353086,"208":-0.587145788284594,"209":-0.49686406651834536,"210":-0.31092088636698767,"211":0.12484808266792953,"212":-0.40030755347247965,"213":0.0021020624270718493,"214":0.01860690482843736,"215":-0.007304735221340226,"216":-0.33519249352143843,"217":-0.2618755482654005,"218":-0.15181071052611478,"219":0.071115152145135,"220":0.301412128458492,"221":-0.025662537959770193,"222":-0.186881741033175,"223":-0.17694046882041203,"224":0.07727041400151462,"225":-0.04843094633686478,"226":-0.167473575939528,"227":-0.06888975562209104,"228":0.07659441045647734,"229":-0.23738483696549703,"230":0.21319203778293488,"231":-0.15319200746903178,"232":-0.03594222375361773,"233":-0.391169468487923,"234":-0.13548132924069045,"235":-0.41706200623609996,"236":-0.25937572067177367,"237":-0.18778329956316603,"238":-0.2941569862134083,"239":0.16145487660419625,"240":-0.0640372442807334,"241":-0.0050924785394454945,"242":-0.1471299813016912,"243":-0.4393873899786665,"244":0.07531740975668977,"245":-0.03972677614197429,"246":0.019474810051456484,"247":0.23302562376788294,"248":0.25044528970368407,"249":-0.013603072580871334,"250":0.13287499371828215,"251":0.14210138049104712,"252":0.016705298499219368,"253":0.033453308572842795,"254":-0.05468174332766787,"255":-0.02888128543795636,"256":-0.027389926947115114,"257":0.023641208574036326,"258":-0.18514867454616996,"259":0.11696662263260259,"260":-0.31928178410427444,"261":-0.32036884491461903,"262":-0.3627363567701101,"263":-0.41288657058333317,"264":-0.11961133539449212,"265":-0.006449096439734998,"266":-0.04884690672273849,"267":-0.01490712655442511,"268":-0.13711452022822085,"269":0.03132773190221898,"270":-0.47974479220774974,"271":-0.2615803033498844,"272":-0.03363015233406662,"273":-0.029175229418343683,"274":0.012994864802176346,"275":0.12109516957752987,"276":0.001370933622141949,"277":0.2310662917156124,"278":0.11754706594952238,"279":0.064595569218585,"280":-0.1338755723021218,"281":-0.19833224589985424,"282":-0.03374930286580698,"283":0.13211792090007415,"284":-0.05541538458699048,"285":0.2609228565076519,"286":0.04619423582893421,"287":-0.22805494142003738,"288":0.0802394355468482,"289":-0.2076411497757746,"290":-0.2754521525145341,"291":-0.1496641139798695,"292":-0.26238251205976826,"293":0.33377233528510897,"294":0.3960373603670845,"295":-0.199086878840356,"296":0.07885346497028822,"297":0.04455330150467602,"298":-0.2653711985165286,"299":-0.3210041717056267,"300":-0.04112635737597043,"301":-0.35946001815279793,"302":0.0969868331459608,"303":-0.11703457371944724,"304":0.22931010363050117,"305":0.017731825283619038,"306":-0.0863167554398496,"307":0.04609533161122484,"308":0.08761365953058409,"309":-0.08269086468779861,"310":0.01609046494220315,"311":0.040329800981742145,"312":-0.03102522108883892,"313":0.2272041354344306,"314":-0.13268520512878154,"315":0.06421159680727744,"316":0.13443548239316463,"317":0.283685203276395,"318":0.19258377705327342,"319":0.7510492558562004,"320":0.3844973733158358,"321":0.32394392351706547,"322":0.11548120993806961,"323":0.048630888635445894,"324":-0.21349610606485533,"325":0.4112802618432911,"326":-0.3303962220853938,"327":0.004796564777609559,"328":0.29733179554301187,"329":-0.16391417169636585,"330":0.032028299621549516,"331":-0.059214176764782744,"332":-0.015257910387257302,"333":-0.02446204738361198,"334":-0.0659085471130203,"335":-0.08868553914730803,"336":0.06038573734289815,"337":0.056766266883039415,"338":-0.006518716579295983,"339":0.21721053914317906,"340":0.040209544123919895,"341":0.30171286930596103,"342":0.33305403558010044,"343":0.2845606107209844,"344":-0.17947072544460083,"345":0.4163641233546754,"346":0.35120551498899266,"347":0.2324351910655181,"348":0.170955419916384,"349":0.07397948760121281,"350":0.0015243270894095638,"351":0.2653304141409277,"352":-0.20569272910729255,"353":0.07799364426319455,"354":-0.08481408150863656,"355":0.19801403161227374,"356":-0.264284898331448,"357":0.10175655291813808,"358":-0.2572431697522085,"359":-0.11393967996286297,"360":-0.19723542670657884,"361":-0.06962645264731879,"362":-0.03283260255245474,"363":0.10120905507402832,"364":-0.18652531217009694,"365":0.11602489985314579,"366":-0.03254465016575096,"367":-0.003942981315662024,"368":-0.01169286145013541,"369":0.3835020151152147,"370":0.6301431773948695,"371":0.25971168510552717,"372":0.04526681366444324,"373":0.5188878968880207,"374":-0.0478507543393621,"375":0.20274326864256062,"376":0.1058576853313692,"377":-0.2719815859556965,"378":-0.18233334886468225,"379":-0.38066099405144316,"380":0.013647927956845994,"381":-0.009616539024907344,"382":0.22012270168438566,"383":-0.0017029828586704431,"384":0.10116748048210264,"385":0.393971040978199,"386":0.07052934711655193,"387":0.1118332442346127,"388":0.11447066901773047,"389":-0.25795956869386794,"390":0.03407006481355669,"391":-0.03832494464380537,"392":-0.0018891185221283635,"393":0.06188432787829762,"394":-0.06728386605204852,"395":0.14091662571699587,"396":0.09412921608366032,"397":0.3012368007324761,"398":0.16718380954678955,"399":0.04481039983074247,"400":-0.098585230667756,"401":0.004040478030145436,"402":-0.11897399250226781,"403":0.007151292423810379,"404":0.36143729226118504,"405":0.17818908913736767,"406":-0.1666851916658384,"407":-0.20601943033267966,"408":0.11384040950533633,"409":-0.15697438447791662,"410":0.1437379363063856,"411":0.1920770977260959,"412":0.154768007427546,"413":0.5163894530522557,"414":0.12592793309484207,"415":0.037934508155859005,"416":0.1015162276817429,"417":-0.038528293630501316,"418":0.16800726262175336,"419":-0.06917815415069492,"420":-0.19219528761207352,"421":-0.05132867626920393,"422":0.027981362745428468,"423":-0.19044014152703984,"424":-0.14808111859810114,"425":0.012251762857346643,"426":-0.24301761603605002,"427":-0.030445751383346483,"428":-0.4693825232674516,"429":0.06834455760768095,"430":-0.292530584844811,"431":-0.1895440381925639,"432":-0.05648639323604688,"433":-0.37423353307199425,"434":-0.4300783372216803,"435":-0.17075220043347772,"436":0.09494497950461626,"437":-0.1597583754201118,"438":0.3439893786044555,"439":0.3365834674233301,"440":0.2409224050899443,"441":0.3753868059031744,"442":0.47518376699547743,"443":0.3300461653490326,"444":0.03467109571008578,"445":0.09217889167411134,"446":-0.060931175665315716,"447":-0.18098470051536986,"448":0.16845873139154594,"449":-0.090229683873428,"450":-0.010141912435340966,"451":-0.10004710079621455,"452":0.023031817096395065,"453":0.05215176775880024,"454":-0.27530326344104067,"455":-0.2657494223628649,"456":-0.23776403240328436,"457":-0.4674926161286268,"458":-0.11118308937121746,"459":-0.3639752898439802,"460":-0.3957428483663713,"461":-0.2365993697268554,"462":-0.4671698349028126,"463":-0.5169636825138283,"464":-0.1490527787461098,"465":-0.2278956601298524,"466":0.02420908033006276,"467":-0.1453804882855946,"468":0.2694281984628383,"469":0.07950343283477077,"470":0.08092574321368401,"471":0.3131839913909733,"472":0.12833235873978616,"473":0.10080083777765504,"474":-0.11291944408825516,"475":-0.16764972785800164,"476":0.12699117514066033,"477":0.1477411368328962,"478":0.015546447261513247,"479":-0.05662280815497208,"480":0.06574192593808095,"481":-0.033263725934601696,"482":-0.04217626707392592,"483":-0.34875148534613665,"484":-0.002791682081748596,"485":-0.13370324406438622,"486":-0.33949445761258423,"487":-0.2971408033612816,"488":-0.19535548454999718,"489":-0.2476145274250186,"490":-0.4314649604999014,"491":-0.29800617560114534,"492":0.1331736055573295,"493":0.159684827772011,"494":-0.08243434944342892,"495":0.5486929279930496,"496":-0.2078565655972265,"497":0.04059695820553291,"498":0.34028907545037373,"499":0.3427429074137666,"500":0.104355209714928,"501":-0.35565564182651915,"502":-0.07392851065268008,"503":0.12039444560734136,"504":0.06401192420939295,"505":0.18268934013177507,"506":0.12983247437522172,"507":0.18089250974749593,"508":0.14091732325213152,"509":0.14541106137007664,"510":-0.02871908528139217,"511":0.03474796198684324,"512":0.5009751776889422,"513":0.16515747997073563,"514":0.13995614838287435,"515":0.24858417856242454,"516":0.17279547223206154,"517":-0.29910674436426216,"518":-0.04558761124908973,"519":0.13238008420021483,"520":-0.1602581844979269,"521":0.46986880299776723,"522":-0.1545138954137295,"523":-0.5063314220782845,"524":-0.008447203233622505,"525":0.08451857627137128,"526":0.189753946951651,"527":0.3100867570777385,"528":-0.055441706399199486,"529":-0.13948059826780526,"530":-0.12351298592748557,"531":-0.04197270098204282,"532":0.035121389593552876,"533":-0.15284686125675373,"534":-0.20575570851604574,"535":-0.02836361916433118,"536":0.04154813419854217,"537":-0.11479816524124177,"538":0.19387547708948963,"539":0.29757857884592787,"540":0.18605773399591338,"541":0.748175429369074,"542":0.43792706499644063,"543":0.5307970555977696,"544":0.9515282215822289,"545":0.13023776855040775,"546":0.07926586022506021,"547":0.025675177944841955,"548":-0.2717071918585262,"549":-0.08021196772384985,"550":0.040967916567987435,"551":-0.281622834374001,"552":-0.1874304648289782,"553":0.08836919328138748,"554":-0.255937422873603,"555":-0.03900011411884278,"556":-0.24750546534240092,"557":-0.11559840651800861,"558":-0.2051534859747382,"559":0.1218141443765739,"560":0.06438591945580552,"561":0.039660476036803546,"562":-0.11568580218753419,"563":0.13404568759999794,"564":-0.06034321541825302,"565":-0.16449640754357445,"566":0.08899379082926445,"567":0.07134697016087153,"568":0.31923682501850253,"569":0.5541084420679608,"570":0.6919400049274868,"571":0.6066489828358868,"572":0.6511481657808769,"573":0.6356955628871508,"574":0.42388280420618213,"575":0.03067020921175118,"576":-0.06188919798651695,"577":-0.001114917178990678,"578":-0.33068390900855094,"579":-0.0022999297716544535,"580":-0.14304180375916836,"581":-0.03407971325756714,"582":0.07439967512296089,"583":0.016021192030415604,"584":-0.005957642156878327,"585":-0.054025341595024486,"586":-0.04540660119683758,"587":0.13083405249089053,"588":0.14255468789931197,"589":0.09547264044243436,"590":-0.20058548380663843,"591":0.021008956637915997,"592":-0.22571618381683367,"593":0.2260217140583859,"594":-0.01503512966645338,"595":0.06856971400168997,"596":0.10243519239242867,"597":-0.06696051192230294,"598":0.1276535817206221,"599":0.2290275601414017,"600":0.34503071812485936,"601":0.23769896540777902,"602":0.4754751960485009,"603":0.5085773660235703,"604":0.2630646655563544,"605":-0.21206626904500245,"606":-0.40321660213511495,"607":-0.41207142302259964,"608":-0.3778195623792459,"609":0.08970076866832838,"610":-0.08885333580376693,"611":0.013267480429393711,"612":-0.09726503909128617,"613":0.029391461520080764,"614":-0.007992052271181006,"615":-0.05254776426909383,"616":0.13536266248092516,"617":0.19986698769229516,"618":-0.018362286766856032,"619":0.04376007614847325,"620":-0.032894792859283324,"621":-0.46920472573219124,"622":-0.28558141696262884,"623":-0.44054837978386396,"624":-0.34029570312330487,"625":-0.10121175876636654,"626":0.011219739600347932,"627":0.1002481675940098,"628":0.17602397545636556,"629":0.033690148318052573,"630":0.35021116133741537,"631":0.2199110387040906,"632":0.4396909318021366,"633":-0.013716261427980728,"634":-0.5981205497392257,"635":-0.28668935975943305,"636":0.14301210212836268,"637":0.08990069139015501,"638":-0.11036137069151009,"639":0.1168994190771443,"640":-0.14025515051990275,"641":0.0949796035634061,"642":0.019625526998829374,"643":0.04508434312871171,"644":-0.07043110075997144,"645":0.03450235750965111,"646":-0.17169111595460865,"647":0.1479237759917155,"648":-0.02666818482739545,"649":-0.09827254813369705,"650":0.0642507248211051,"651":-0.30667970787542254,"652":-0.07923535306074161,"653":-0.04778693473970815,"654":-0.13695067550806006,"655":-0.1354084245656585,"656":-0.2267765359936032,"657":-0.19490298107306184,"658":-0.03489552312179098,"659":0.11026091693474677,"660":-0.2706546329732167,"661":-0.2328116028177574,"662":0.00314612476099258,"663":0.1387576706217493,"664":-0.21159643075037782,"665":-0.17207410629308445,"666":-0.1728555988095325,"667":-0.21684171490904222,"668":0.097275536359845,"669":0.028432703891168438,"670":0.029746376336579783,"671":-0.0929072739569124,"672":0.16828853435683627,"673":-0.1851193710954555,"674":0.10414498915353891,"675":0.07206536603008251,"676":0.02445317940530952,"677":-0.10868098038570773,"678":0.118524645810789,"679":-0.11061814080734221,"680":0.13935515525396416,"681":-0.17579688924415574,"682":-0.6336228591392085,"683":-0.5661361995917701,"684":-0.18076430404738464,"685":-0.22442236251837816,"686":-0.21731682957374224,"687":-0.34181404948009236,"688":-0.024503836925201708,"689":0.06677062031503121,"690":0.05805456042983454,"691":-0.25274190500378907,"692":0.03163095897702805,"693":-0.0477959927830624,"694":-0.06939604854000722,"695":-0.03990794524937114,"696":-0.14652362551307557,"697":-0.13000501487740107,"698":0.1817048915331232,"699":-0.004340212596596782,"700":-0.1853781935359332,"701":0.18908903455245268,"702":0.15078936073859323,"703":0.03625779832118196,"704":0.025197914619493025,"705":0.07970885315908774,"706":0.10750347351849165,"707":-0.1673339369546724,"708":-0.05583374812151044,"709":0.11201867674946078,"710":-0.11179915610012008,"711":-0.2124931364786444,"712":-0.10490854601987981,"713":-0.08942999653266061,"714":0.032220033265284845,"715":-0.16929169599249824,"716":-0.22287348997759518,"717":-0.20732351947124927,"718":-0.19206684297642287,"719":0.03360773395067525,"720":-0.10813224166081245,"721":0.04835550875670238,"722":0.0628412645420751,"723":-0.04869002426298983,"724":0.19341625375916977,"725":0.11008438632811501,"726":-0.1773560888452555,"727":-0.06556220640231622,"728":-0.11408784724625028,"729":0.16534776895473663,"730":0.05823063542349721,"731":0.07946219223581047,"732":0.12785612506107008,"733":-0.1906271672936441,"734":-0.11779454245847959,"735":-0.1054499914469135,"736":-0.14238834539202228,"737":0.012118880909604422,"738":-0.14782260129462438,"739":-0.015274491074249007,"740":0.05076691766779605,"741":0.1697905775990465,"742":-0.11856973836949385,"743":-0.18836841154540784,"744":-0.12198218337468954,"745":-0.16218674508334002,"746":0.08825054367392723,"747":-0.13741126935590328,"748":0.07873576166285395,"749":-0.04398848762265523,"750":-0.003081100724250715,"751":0.04522067415762692,"752":0.10978787466067691,"753":-0.00973077722751442,"754":-0.1507714475197382,"755":0.12003940813201064,"756":0.11074968073045505,"757":-0.14881505298461814,"758":0.08103241281390672,"759":0.08786688409311438,"760":-0.11570266773869467,"761":-0.13414634802666467,"762":-0.07564965563598401,"763":0.04214568757594844,"764":-0.16548378118953938,"765":-0.02513470484801453,"766":-0.06149613925331877,"767":-0.12034758720124192,"768":-0.14823938407476003,"769":0.05620725070192174,"770":-0.1189575426104559,"771":-0.18460584514590755,"772":-0.06411144980214595,"773":0.05210550469191245,"774":-0.03289221181229433,"775":0.10566806560009298,"776":-0.1305754130666913,"777":-0.14057360221701753,"778":0.16260596510213893,"779":-0.01852099558010928,"780":0.12915421600575422,"781":0.1573690655926961,"782":0.10985009882980368,"783":-0.06000878762557668}},"3":{"bias":-0.47497567751235553,"weights":{"0":0.07215220145239842,"1":0.11560842733614046,"2":0.1649948982795319,"3":0.12528599133555707,"4":-0.06460522774194608,"5":-0.16473281185558175,"6":0.04992833648742384,"7":-0.17647411972008842,"8":-0.1884798269144229,"9":0.029944533937870943,"10":-0.15501764678615448,"11":-0.1708724762846285,"12":0.050502522559380314,"13":0.16004746962468686,"14":-0.07862796624625804,"15":0.0457523475079567,"16":0.1902305636706984,"17":0.04644969589530029,"18":-0.07089372648251233,"19":-0.0480470075856502,"20":0.12423645956192164,"21":0.19305203051285524,"22":0.0794403806980914,"23":0.11617660850276385,"24":-0.16369481145016007,"25":0.18342349609286573,"26":-0.19136062779505725,"27":0.04813162290910461,"28":0.09573736743803973,"29":0.14560703106074352,"30":0.17607435369642738,"31":-0.18573804171044764,"32":0.07168319565913228,"33":-0.06566053965390736,"34":-0.16865864475770892,"35":0.12922261934226612,"36":0.11769149016696644,"37":-0.03802728406655121,"38":-0.09202766182600934,"39":0.02974890010459188,"40":-0.02613217076418761,"41":0.12622397575316519,"42":-0.12621269757433667,"43":0.032607030509759896,"44":0.10981892752616607,"45":-0.12599355944065094,"46":-0.014808216601349471,"47":0.10346601850127389,"48":-0.09711033322956772,"49":-0.1421749331551416,"50":-0.19908838296890852,"51":-0.012188540035514384,"52":0.06823552720029469,"53":-0.09963078638868668,"54":-0.19346821062425237,"55":0.09685197022854314,"56":-0.16713856593146448,"57":-0.046563918507272456,"58":0.043308006498050056,"59":-0.1218253685995082,"60":0.06499123933164636,"61":-0.0627943099903365,"62":0.04810601171572711,"63":-0.11683346290682539,"64":0.07542681181779298,"65":-0.15524486113176064,"66":-0.1896080307995726,"67":-0.01519437818551151,"68":-0.0281606222590933,"69":0.08390189113261123,"70":0.06044486963373835,"71":0.25384603448134924,"72":0.21018158639814372,"73":0.32533863884167025,"74":0.1949031796337688,"75":0.2605486954067496,"76":0.20642049892418804,"77":0.2386101886051001,"78":-0.16797311982173233,"79":0.13436934141402634,"80":0.053150532330055844,"81":0.07652918674227349,"82":-0.12389785945940464,"83":-0.050298820947924316,"84":-0.10432905234166717,"85":0.19844533880291987,"86":-0.13347088866022283,"87":-0.17038874787461006,"88":-0.16776752270432338,"89":0.1585569828534547,"90":0.06392473342099945,"91":0.08206766433510602,"92":-0.1290340007866182,"93":-0.06333184092555438,"94":-0.3224328615874972,"95":-0.2763441885998681,"96":-0.01979737218440306,"97":-0.11698508500173248,"98":-0.34163580717228603,"99":0.419062150812267,"100":0.02347454404297078,"101":0.3667046616899742,"102":0.4191732528577391,"103":0.47782875206730024,"104":0.4406419829222152,"105":0.24103756986253044,"106":-0.061167417815842014,"107":-0.07720241157674676,"108":0.1558801997975879,"109":-0.17693968820994954,"110":0.11037600910829609,"111":0.1694965185806674,"112":-0.132354928491132,"113":0.052396876188832375,"114":-0.04753675130829854,"115":0.06474351145915869,"116":0.0901150496550811,"117":0.055924759278984416,"118":-0.05557992334338369,"119":-0.12657034636236592,"120":-0.12247720194832697,"121":0.0191797021041314,"122":-0.07360597143933875,"123":-0.06114414476177189,"124":-0.16907966349325906,"125":0.3110651765297159,"126":0.23636779651072828,"127":0.4018050010907894,"128":0.34897646385079234,"129":-0.044800649540870416,"130":0.10475540068877598,"131":0.10383041558896555,"132":0.28520960036908305,"133":0.1577061430973077,"134":0.18622599765437906,"135":-0.11279856860727101,"136":0.08978142961559846,"137":-0.07654177145452298,"138":-0.02594284461940044,"139":-0.13416094734819267,"140":-0.08360685346293684,"141":0.11148578679430426,"142":0.03685107109178576,"143":-0.051194508237000745,"144":-0.2449149321487487,"145":-0.041177624995530716,"146":-0.14520638635200203,"147":-0.26143793229571316,"148":-0.16921355158874302,"149":-0.13398030369767414,"150":0.07779481374716159,"151":0.3700706492921415,"152":-0.4425015317945039,"153":0.08664550671112702,"154":-0.09625129604326275,"155":-0.07479932504971155,"156":0.20274393398417767,"157":0.1507359802196596,"158":0.05430110743807276,"159":0.04347210398494854,"160":-0.009572235230010016,"161":-0.37642911616367525,"162":-0.08609168141711249,"163":0.2614483268322552,"164":0.1762551104943133,"165":-0.23431002937077494,"166":-0.011943218697464944,"167":-0.12388557849234712,"168":0.15428796582930504,"169":0.10694737097768148,"170":-0.1251534188534266,"171":0.07716651116046247,"172":0.13428469934283085,"173":-0.03867018942398088,"174":-0.04395004619286766,"175":-0.17834739018206738,"176":-0.22394961916822226,"177":-0.31516461200790596,"178":-0.0068015481292642505,"179":0.07947198932525058,"180":-0.014593079486355867,"181":-0.0548870715449472,"182":-0.0605866914308166,"183":0.5172822273921697,"184":0.38726547509161613,"185":0.029331602245700507,"186":0.04385610610611907,"187":0.04226294160913817,"188":-0.21592463937069234,"189":-0.4653137839202811,"190":-0.25144376956818243,"191":0.052740922858535974,"192":0.16524639640751415,"193":0.19944809022393242,"194":0.09871831951434439,"195":0.18679928979707858,"196":-0.011966331172723527,"197":-0.021957881809147033,"198":0.08347995818156563,"199":-0.17324439293164426,"200":0.07043000412425417,"201":0.02321572962447872,"202":-0.33237491941281083,"203":-0.33980114715776627,"204":-0.4825871399402542,"205":-0.4727713139544085,"206":-0.20643525296403967,"207":0.17981596660892882,"208":0.3672228331381038,"209":-0.21512912535850046,"210":0.3899304781080018,"211":0.09360168988070225,"212":0.25627794366320816,"213":0.10266711253812875,"214":-0.07849237951496144,"215":-0.0864614650556025,"216":0.013167424325943465,"217":-0.31330344779077646,"218":-0.3230198580763557,"219":0.020204224531483884,"220":0.13125354520945426,"221":0.11589827496260655,"222":0.15932960458269352,"223":0.046245009116273314,"224":0.039153497945953276,"225":-0.10651128956881876,"226":-0.037182026049983816,"227":0.0927100920469296,"228":-0.21526205905823684,"229":0.05461064040914917,"230":-0.26850320150680673,"231":-0.4931358854085817,"232":-0.3592347191253142,"233":0.04781262501844708,"234":-0.29889740784000013,"235":0.2667098137840459,"236":0.3363191165997726,"237":0.04902423588730178,"238":0.39113145123118076,"239":0.35310915329425197,"240":0.14208877853879903,"241":-0.5744119646078484,"242":-0.7169961759790224,"243":-0.605364684345967,"244":-0.3266707681362298,"245":-0.3345058480200801,"246":-0.5410708303407683,"247":-0.14218230048056033,"248":0.19238185039505426,"249":0.059978723377575094,"250":-0.1414477625490465,"251":0.12440246759700002,"252":-0.034553108303215924,"253":-0.09364480631113845,"254":-0.20634802296715873,"255":-0.04320708535793497,"256":-0.05802035955893209,"257":0.03632732224782207,"258":-0.20730986291545778,"259":-0.36040278539838605,"260":-0.026925782509589376,"261":-0.42925848705628283,"262":-0.09594097238803781,"263":0.23216547350416017,"264":0.21229775902692768,"265":0.12254831867014807,"266":0.5878664132897689,"267":0.1307809434968208,"268":-0.24175100676881803,"269":-0.5226394955668597,"270":-1.193376066943869,"271":-1.2853391475818272,"272":-0.8912909901981403,"273":-0.573598533476041,"274":-0.4870808926049724,"275":-0.44911713193638747,"276":-0.010564572491451601,"277":0.04942651939852483,"278":0.09111224619790564,"279":-0.03390282707760822,"280":-0.17210746805864485,"281":0.02692298304260725,"282":-0.0982876561108711,"283":0.07111304733663232,"284":-0.11903117158354228,"285":-0.40448519201560335,"286":0.10587320238655286,"287":-0.5026828059774517,"288":-0.5345642993859104,"289":-0.14607010993978062,"290":0.3435171949207351,"291":0.3615414569304183,"292":0.009987946066556536,"293":0.3194914018090663,"294":0.46041099716214995,"295":0.031359802703443095,"296":-0.7983743967419804,"297":-0.5759941760161248,"298":-0.6745077812472595,"299":-0.8682682153309066,"300":-0.6427351888878021,"301":-0.7165332266864183,"302":-0.9805781927490321,"303":-0.2093025466315229,"304":-0.15735201451551742,"305":-0.1801932619592179,"306":-0.1194800078057919,"307":-0.0926598994826236,"308":-0.08160637507865794,"309":-0.14595592343655928,"310":-0.11440888931824052,"311":-0.05831746869071285,"312":-0.2711400512880704,"313":-0.03750514860670059,"314":-0.35072072790847203,"315":-0.036074134394165985,"316":0.01807972290289603,"317":-0.2458141031745355,"318":0.10686674266341399,"319":-0.04449635872093829,"320":0.14993813123709637,"321":0.5355058917791506,"322":0.39365089910053885,"323":0.3053156786642924,"324":-0.024940587971335006,"325":0.03631719454366267,"326":-0.36729051302204196,"327":-0.5019446625897507,"328":-0.29449595784858845,"329":-0.48103388199851616,"330":-0.506464129312119,"331":-0.4239260497122266,"332":-0.38023707618987157,"333":-0.24110772089627266,"334":-0.0036621740518307886,"335":-0.04170131649378056,"336":0.16525188551111852,"337":-0.1735787808380412,"338":0.08258757510465668,"339":-0.016329013896033313,"340":0.07593979589888605,"341":0.027221029059935183,"342":-0.26978136352884874,"343":-0.14751353481392485,"344":-0.05119307641366208,"345":0.3425404969302144,"346":0.028762817817160266,"347":0.2605103371819659,"348":0.8571570525446148,"349":0.4326447752922898,"350":0.025891616056783584,"351":-0.29849046963169173,"352":-0.22342181356470084,"353":0.3316606317060328,"354":0.29377923246128324,"355":0.002960814719945581,"356":-0.30292340918033595,"357":0.19138139776855043,"358":-0.5137334573959698,"359":-0.292964920961369,"360":-0.25716386344614595,"361":0.09197102045386304,"362":-0.10779885489799466,"363":0.012570691049598468,"364":-0.1239858607330679,"365":-0.18525802498505614,"366":-0.038545002539248314,"367":-0.2092437962937511,"368":0.10516597914815212,"369":-0.13983971552383173,"370":-0.39307237238416504,"371":-0.33879044444434375,"372":0.3541599984195442,"373":0.03862428564195795,"374":-0.054027451150598205,"375":-0.15483952454285915,"376":0.07401401631851921,"377":-0.4447361632441455,"378":-0.09148628883474555,"379":-0.3285569737556678,"380":0.629996797318871,"381":0.22663681048885956,"382":0.08057247904365503,"383":0.20728528525635023,"384":-0.18506894835893928,"385":-0.04358916464882911,"386":-0.08188562574495702,"387":-0.20485263948138743,"388":-0.03215905752786284,"389":-0.14123010123455143,"390":0.0592437507970614,"391":-0.15396524350911334,"392":0.09683528533705266,"393":-0.019275771133608094,"394":0.04928230225943256,"395":-0.01698792537706551,"396":-0.13831565984728864,"397":-0.171762777985183,"398":-0.17803489751787552,"399":-0.296553820079693,"400":-0.19726196704565765,"401":-0.03600114429381114,"402":-0.21278265489985762,"403":-0.05510792439146301,"404":0.5195991399424286,"405":-0.08550199153340458,"406":0.14788161006264286,"407":-0.1780427957437643,"408":-0.05030109281122706,"409":-0.08352052847869515,"410":-0.08421355989552622,"411":-0.07063337999323392,"412":0.020888134125352224,"413":-0.07282579174535972,"414":-0.09008014390445353,"415":0.08656036468551734,"416":-0.12556827049810299,"417":0.13473316115523595,"418":0.039736499977289674,"419":-0.031185210734006208,"420":-0.1538733611143769,"421":0.08337025513725582,"422":0.14759322678784775,"423":0.07387673928918358,"424":-0.1833720711058205,"425":-0.08597775075591095,"426":-0.385274028857415,"427":-0.4047811530070295,"428":-0.23504640906443586,"429":-0.48573556754385816,"430":-0.6281548132460246,"431":-0.2865368816136957,"432":0.4500355308490597,"433":-0.21355676631511422,"434":-0.15091393680819037,"435":-0.14037697950963646,"436":-0.2874188302572361,"437":0.2305919363079475,"438":0.1322939072036759,"439":0.3698236395776576,"440":0.17014592037515183,"441":-0.03326031384859023,"442":0.3204772084959443,"443":0.0862670212406882,"444":0.0472327187534271,"445":0.1134292088373038,"446":-0.08542430893089319,"447":0.005414104622254279,"448":-0.01643087420379663,"449":0.021365708102414616,"450":0.062287285581221735,"451":0.05988469072679507,"452":-0.10112667025185675,"453":0.20270960888572725,"454":-0.2194876513682176,"455":-0.40829545204006445,"456":-0.5471067559947298,"457":-0.6657323358656336,"458":-0.4254403157702035,"459":-0.06973565637913139,"460":-0.17630841099983066,"461":-0.3445856455477204,"462":-0.2356964536683984,"463":-0.45798021290433166,"464":0.41579387627242614,"465":-0.3228036034034639,"466":-0.07737563555447936,"467":-0.042304704689549694,"468":0.32914423570762125,"469":0.14577512770046278,"470":0.309401091656933,"471":0.13748649313502825,"472":-0.08502697986735741,"473":-0.02015711320412045,"474":0.04019011750289709,"475":-0.2033885223983786,"476":-0.12285984853485968,"477":0.15910970655035372,"478":-0.1582804991620582,"479":-0.16000708941115035,"480":-0.05350290399889551,"481":0.3155158739251576,"482":-0.06526731753165851,"483":0.2709108613140167,"484":-0.3800175945298026,"485":-0.4143271916138938,"486":-0.8946951291490928,"487":-0.3211921932780692,"488":-0.7252531007407207,"489":-0.6830079765069575,"490":-0.2538277659703873,"491":-0.28087404958605755,"492":-0.6521141923094302,"493":0.01973166655005761,"494":-0.1004617340556133,"495":-0.16606530080235393,"496":-0.011464795873941811,"497":0.38619200465161435,"498":0.28427901330456096,"499":0.05913750297751938,"500":0.17027195691978386,"501":-0.2608617000613592,"502":-0.010123321940574581,"503":-0.1235059742984916,"504":-0.046039683592182634,"505":-0.19275453474379756,"506":-0.20052740017226145,"507":0.03627937139826857,"508":0.3789343700605353,"509":0.3011876172955913,"510":0.10348455749517965,"511":-0.004035168713558849,"512":-0.16313436893938385,"513":-0.03400473528060927,"514":-0.32454162974277617,"515":-0.3955143549892024,"516":-0.2778185467204614,"517":-0.3849631432072106,"518":0.2268019644670926,"519":0.4675411128171895,"520":-0.47631444236026016,"521":-0.3066459252039965,"522":0.09247159201351253,"523":-0.2681085923295588,"524":-0.0050752445585571316,"525":0.33827010314149064,"526":0.2578711283903829,"527":-0.2716262763096564,"528":-0.13016795724695307,"529":-0.05127757557564717,"530":0.18786867648509134,"531":-0.15123295925723512,"532":0.19632793852962455,"533":0.18715943742730046,"534":-0.017188623856864503,"535":0.11582249736935896,"536":0.1940870386246179,"537":0.19116294299375494,"538":0.2464663971425195,"539":0.4054388883364368,"540":-0.23105530027795035,"541":-0.2005779105083687,"542":-0.40502772058231484,"543":-0.2906695064078512,"544":-0.28242818188216984,"545":0.12950386646854237,"546":0.2998610246303671,"547":-0.2493530305412103,"548":0.05350437515425292,"549":-0.20643713588050724,"550":0.05795617029245013,"551":-0.03610863165105077,"552":0.06922889236074875,"553":-0.04925674165803699,"554":0.061733060758973876,"555":-0.14594521135832278,"556":0.09632688750229046,"557":-0.008704312908829002,"558":0.040319090653603396,"559":-0.09084205249881974,"560":0.10996429751902825,"561":0.10824629284877751,"562":0.17528533728330734,"563":0.11042996154046127,"564":0.32959315504432707,"565":0.22174096483204192,"566":0.26187054761029854,"567":0.30997238967973734,"568":0.6080945094039962,"569":0.27738915920101487,"570":0.09935347955805188,"571":-0.03815474336324151,"572":0.08855849585064905,"573":-0.0911228363241225,"574":0.3313525395887005,"575":-0.164354151987868,"576":-0.10643200757461366,"577":-0.3443889093652971,"578":0.24731988411505762,"579":0.3212692011432721,"580":0.1036170177020477,"581":-0.011400558485918923,"582":0.028797203430361566,"583":0.0811781085614944,"584":0.25415104287034873,"585":-0.010692132622269816,"586":-0.17869651137066545,"587":0.17763603930910155,"588":-0.06807943999562457,"589":-0.000042803812253624884,"590":-0.048923831757263524,"591":0.17679514481255343,"592":-0.12361366304259958,"593":0.10417380068393406,"594":-0.034072374688680324,"595":-0.05500079778424025,"596":0.4935792520897005,"597":0.6169452692891356,"598":-0.04691790330724504,"599":-0.042485089863356515,"600":0.6423033464314564,"601":0.19896010701901012,"602":-0.3054386600041143,"603":-0.18143226210054503,"604":0.3957891005685326,"605":0.536982573174991,"606":0.5439039976171272,"607":0.2839307732351477,"608":0.268944475230883,"609":0.04991945112427319,"610":-0.32476243968113777,"611":0.15752045860433767,"612":0.29268603338961174,"613":0.0371256431326485,"614":0.09801352084080388,"615":0.06975915578166514,"616":0.1518152265976931,"617":0.09808719037228408,"618":0.09709371081955427,"619":-0.07587223320107632,"620":0.2600586534309157,"621":-0.1888451724390645,"622":-0.30186049353746697,"623":-0.004830311775682106,"624":-0.08393322255318575,"625":0.10255560771290174,"626":-0.010967427768389479,"627":-0.01753386771178221,"628":0.20388853480535774,"629":-0.21842955492989657,"630":0.07012192233242151,"631":-0.04765794109809859,"632":0.09252296900596724,"633":0.4466443918858902,"634":0.1393427329248013,"635":0.023910901091678687,"636":0.1928207479883085,"637":0.21514998073270825,"638":-0.13812472693261296,"639":-0.012533839575597151,"640":-0.17366707547499408,"641":-0.08544053787934641,"642":0.18047808851455588,"643":0.0004244020385390235,"644":0.18217647852977797,"645":-0.179490679784868,"646":-0.20076676568387064,"647":-0.028781342235959847,"648":-0.13303506197354886,"649":-0.11698766829376903,"650":-0.13734789977519632,"651":-0.5027578757149793,"652":-0.3134068377040011,"653":-0.08864596218420451,"654":0.09600532325445404,"655":0.20834055326180004,"656":-0.13389742011879463,"657":0.14717098831372125,"658":-0.21720549127388036,"659":-0.1791184757202418,"660":0.337633098549155,"661":0.06904800776872451,"662":-0.13703814610801227,"663":-0.009528020656577336,"664":-0.03366060032041615,"665":0.030103645612771616,"666":-0.0707132022126178,"667":0.1437392170150236,"668":0.12806369256824435,"669":-0.08928436555472495,"670":-0.19187335527943336,"671":0.12846699110688603,"672":0.03830999853662301,"673":0.11668310961318745,"674":-0.0704353002125915,"675":-0.006445612878077407,"676":-0.16458449664029162,"677":0.17493636953164365,"678":0.1533000431463092,"679":-0.27865351823365925,"680":-0.17257113425776402,"681":-0.0471882202888443,"682":0.49996027242162816,"683":-0.3350581043733768,"684":-0.10473366362819711,"685":-0.11518368967456709,"686":-0.04996696306771089,"687":0.0007397592204890077,"688":-0.5256210433871041,"689":-0.4756848333074064,"690":-0.45374680945469564,"691":-0.3533216876040238,"692":-0.020054855372511348,"693":0.06541095031836647,"694":-0.20034987202905008,"695":0.03772310597870454,"696":0.01970648336216455,"697":0.11420961170899621,"698":-0.00836719265543806,"699":0.01597476787734947,"700":-0.12628456957846118,"701":0.16723052020312984,"702":0.09252675115965142,"703":0.05441928579883056,"704":0.08509175992432201,"705":-0.14327880020948294,"706":-0.15247312768511864,"707":0.13998207496807635,"708":-0.10476748366162306,"709":-0.05203098369256141,"710":0.2727552007856612,"711":-0.22840412085937017,"712":-0.09645597323841987,"713":0.061417832352210655,"714":0.13059306389357905,"715":-0.10322547819946629,"716":-0.03761429608966887,"717":0.005007813696345635,"718":-0.04837681129758181,"719":-0.049368608737338365,"720":0.030565082335202623,"721":-0.1810968296675805,"722":0.1477394029870288,"723":0.15729370754404673,"724":0.0756977238329047,"725":-0.005490568124507711,"726":0.06341519940766932,"727":-0.1065436565829864,"728":0.18775745001745936,"729":0.13714384409511676,"730":0.004635556937011731,"731":0.0156698337394629,"732":0.18749646063552064,"733":-0.17833983024067726,"734":-0.15069067766071276,"735":-0.09457018481080248,"736":0.029065463567357286,"737":0.31707609734521697,"738":-0.12856759411787202,"739":-0.24926576712016996,"740":0.2071770861351033,"741":0.13377651085234568,"742":0.05890657050045385,"743":0.05360514691564593,"744":-0.1143862114674069,"745":-0.13403398205283204,"746":0.06776289263307013,"747":-0.30723643686029534,"748":-0.21775722592402572,"749":-0.0451807108700293,"750":0.15658221883634338,"751":0.18548590271080628,"752":-0.11619939207653687,"753":0.08612308054769346,"754":-0.11603323579313321,"755":-0.05893152274538602,"756":0.06404683491935959,"757":0.18668009687538856,"758":0.010940490205999798,"759":-0.016202644641309494,"760":0.06405664518642229,"761":-0.01380116819222656,"762":-0.03248674755437637,"763":0.1311239100495626,"764":-0.0990144999119626,"765":0.060324707887201935,"766":0.13451769613331122,"767":0.1068201831742298,"768":0.06799656092456403,"769":-0.05129337659437698,"770":0.1569287333662429,"771":0.15674707371477742,"772":0.14019767458484267,"773":0.052036887605981706,"774":-0.20381549606773963,"775":-0.041953327640630526,"776":0.1577384824615245,"777":-0.11808965338377807,"778":-0.11880464326656291,"779":-0.15753775131534448,"780":0.07995824577710708,"781":-0.0345575478451452,"782":-0.11204101931513817,"783":0.11816873471093053}},"4":{"bias":-0.7092149179511571,"weights":{"0":0.1813870493557972,"1":0.17380341448730857,"2":-0.12115940347800054,"3":0.031204882509762666,"4":0.04614604849697662,"5":0.14514940726253373,"6":-0.07951288563664081,"7":0.17325913977083562,"8":-0.16077363372665918,"9":-0.10673637705564919,"10":0.14798639992159907,"11":0.16187577014131327,"12":-0.01772114398092936,"13":-0.14131672081133062,"14":-0.13544599972570487,"15":0.12404578425488949,"16":0.1684008224268525,"17":-0.19642468127309043,"18":0.09708610985884975,"19":-0.15067591172418002,"20":0.15537688678803285,"21":0.07845467660451994,"22":0.161332898048624,"23":0.056821504727483485,"24":-0.08729694187992738,"25":0.03337278022717233,"26":-0.011446760546699242,"27":0.18108100627889095,"28":0.16636230706428928,"29":0.14669722532961105,"30":-0.13648781411552158,"31":-0.09914245716599179,"32":-0.17471670994966867,"33":-0.13853734059883038,"34":0.17471391710173975,"35":0.1320061708091307,"36":0.1897421448215322,"37":-0.1101513603128908,"38":-0.11516484653351909,"39":0.0985651428994332,"40":-0.07245525382341307,"41":0.03360150871217023,"42":-0.012777445296719123,"43":0.2085664988816006,"44":-0.00919484026649515,"45":0.0004483825123755415,"46":-0.12244152450480533,"47":-0.05900769597731541,"48":-0.16990391972309227,"49":0.024295361741242787,"50":-0.04958692992177261,"51":0.18571803890407487,"52":0.14184907515990347,"53":-0.006622997816744108,"54":0.14441908498149764,"55":0.18348576510054493,"56":0.01166317121573518,"57":-0.1264941043524952,"58":0.07729372729060363,"59":0.007513951899645294,"60":0.036575375625443385,"61":-0.00031755432631533353,"62":-0.14486504239527673,"63":-0.05895917533480241,"64":0.027029335888558704,"65":0.08510348377845313,"66":-0.13960772723362946,"67":0.03478336189359012,"68":-0.02641832349087655,"69":0.08557133547347062,"70":0.12256786864892599,"71":0.1135005010409169,"72":0.06236634706277878,"73":0.14175187224391736,"74":0.1552343375489198,"75":0.22540565677576677,"76":0.055225391571389344,"77":0.08863279927952751,"78":0.19878720585295298,"79":0.17463932625593315,"80":0.08821648945026912,"81":0.10892315320841978,"82":-0.1183508904931439,"83":-0.0879584268095214,"84":-0.07837687768815159,"85":0.08746629649830862,"86":-0.09491257159704958,"87":-0.05796998954515972,"88":0.16620442634822225,"89":-0.10828388635515421,"90":0.06954939763153238,"91":-0.020382649908870048,"92":0.049722610882268904,"93":0.09527526262593262,"94":0.16515203523297167,"95":0.02976974240261424,"96":0.0856214620592482,"97":0.07792497501224938,"98":0.3784346977456282,"99":0.2528280817729928,"100":-0.008422984844242644,"101":0.13801760955285072,"102":0.25220732328785117,"103":0.17276035790388405,"104":0.5355423503239731,"105":0.29536979106039357,"106":0.3004808426020556,"107":0.28299695486227666,"108":0.3691951085729758,"109":0.1182133978123319,"110":-0.11992607606497732,"111":0.19552011127077995,"112":0.05200424998232939,"113":0.020908684790167248,"114":0.030952762004536977,"115":0.014236954918736167,"116":0.10899136768546867,"117":0.14008877793258678,"118":0.1698388349800322,"119":0.01810010616909578,"120":0.196859590453324,"121":0.2597023574893477,"122":0.02075989429783087,"123":-0.15844228924025994,"124":0.01677199988203749,"125":-0.05130116924060477,"126":-0.06597428348880666,"127":-0.020505970245021068,"128":-0.004295580232005837,"129":0.5080871277649223,"130":0.3993142429514457,"131":0.7340958888674421,"132":0.6668485211136441,"133":0.17172475503355014,"134":0.1287315877159927,"135":0.4031091705871397,"136":0.11568036237748744,"137":-0.06930919621473375,"138":-0.08941937464295557,"139":-0.03398070980406534,"140":0.18101277094675394,"141":-0.1876439809881263,"142":-0.1785096193075332,"143":-0.06456570344253468,"144":-0.07661006887960752,"145":0.006385456798094782,"146":0.03162030619547571,"147":-0.21606763760288836,"148":-0.04889808679801428,"149":0.16320877740427472,"150":0.1835639521589754,"151":-0.00006729777566148014,"152":-0.1646006827694735,"153":-0.061868291293027074,"154":0.08648012181898072,"155":0.281599003657236,"156":0.4871671547195087,"157":0.49969943724230065,"158":0.7047651256751376,"159":0.4174305106583738,"160":0.32957077714011496,"161":0.12377329418234817,"162":0.5078356851984988,"163":-0.07446769311828849,"164":0.3976506615255296,"165":0.08715585921177889,"166":-0.03721388250060896,"167":-0.18915058283721634,"168":-0.015578214960834919,"169":-0.1304293501473496,"170":-0.1038873093290559,"171":-0.0192918673491686,"172":-0.17737858856560337,"173":-0.1260196326951312,"174":0.009130264718129496,"175":0.21331377656406586,"176":0.23631196157222084,"177":-0.06404967373765655,"178":0.12528132984197818,"179":0.03213273036009856,"180":0.2573228103423981,"181":0.5180039585795094,"182":0.13028929348430565,"183":0.10269591909960232,"184":0.33960242884500624,"185":-0.10229162605441308,"186":-0.28887778415309157,"187":0.146872007730443,"188":0.2935324856684817,"189":0.108581901317072,"190":0.2964366982701672,"191":-0.23572348030128587,"192":-0.1340893025356767,"193":-0.19628513801984754,"194":-0.22562676672132864,"195":0.01980398669894622,"196":-0.06989949300574436,"197":0.009037227351378855,"198":-0.11643875510700585,"199":0.11479264830437648,"200":0.15855720556304714,"201":0.20413314677384384,"202":0.19241369627626817,"203":0.16685161940064985,"204":0.049778328167187635,"205":0.16854446455648267,"206":0.18649646733772945,"207":0.1834167875293594,"208":0.7554334586517856,"209":0.03562105575288832,"210":-0.18790720810020997,"211":-0.2754623583962047,"212":-0.3835678894250905,"213":-0.7123601524173168,"214":0.010787629660679227,"215":-0.25642923268956674,"216":0.12006932059099376,"217":-0.40523378396841847,"218":-0.1871663139205287,"219":-0.07401880423690846,"220":-0.17143479065700107,"221":-0.2675936292454875,"222":0.09241844830579847,"223":0.011400646867314526,"224":0.051630400669462465,"225":-0.045356562111578645,"226":-0.1843035508958325,"227":-0.014559653480044355,"228":-0.0007695077499753024,"229":0.09409481030337824,"230":0.13834279684413317,"231":-0.004556487399328295,"232":0.11637561446733487,"233":0.14857104020292902,"234":0.1234423401181593,"235":-0.04584560343137128,"236":-0.06311937943963761,"237":-0.23901829601797714,"238":-0.32710369960610736,"239":-0.7252442589887923,"240":-0.2114686752820767,"241":-0.1953181333293196,"242":-0.31327453621625295,"243":-0.2752877745333428,"244":0.012871910871374015,"245":-0.0033903949695042452,"246":-0.2946523218155029,"247":-0.37165726744264843,"248":-0.09301219244514448,"249":-0.1979833128107158,"250":-0.17923233292724405,"251":0.012314561405628201,"252":-0.004707340720951969,"253":-0.15359644077447446,"254":-0.012754406470141403,"255":-0.06270181593281197,"256":-0.0013732243278144407,"257":-0.05321139665361373,"258":0.2573950421170642,"259":0.09830201214558543,"260":0.07088783793010148,"261":0.013208553693838769,"262":0.0654750767897462,"263":-0.20354854766156819,"264":-0.19436599566726653,"265":-0.23472095019302502,"266":-0.20422109447318929,"267":-0.1114116106121928,"268":-0.4292240464696196,"269":-0.3705890033314806,"270":-0.5166913167643468,"271":-0.19782542835354322,"272":-0.3044020548201571,"273":-0.14841303824437618,"274":0.0038693712673839387,"275":-0.3118415653566263,"276":-0.09341953985758837,"277":-0.11682386296079932,"278":0.09152030288054196,"279":0.18858646573985016,"280":-0.09335937843589193,"281":0.04489064724219424,"282":0.11945022955604033,"283":0.1790753612115674,"284":-0.05205283403063389,"285":0.21016530531482155,"286":-0.17742446316234436,"287":0.049786604082406205,"288":0.5729107710497392,"289":0.24570894062301243,"290":-0.17031883001214293,"291":-0.6200308420451154,"292":-0.2618785713141485,"293":0.09969764458730355,"294":-0.09510897289009791,"295":-0.20170459061241997,"296":-0.4374727214561788,"297":0.031276459161297294,"298":-0.27521642430169135,"299":-0.37524096203660356,"300":-0.19475548552122168,"301":-0.18593559942737406,"302":0.004067332048716974,"303":0.01013191092660786,"304":-0.27447632800629745,"305":-0.18537658708919227,"306":-0.03226592313826218,"307":-0.13830078657078737,"308":-0.09489252234772697,"309":-0.17805954953657688,"310":-0.22137031737016677,"311":0.18691185635013116,"312":0.008489756215518824,"313":-0.06672018821650652,"314":-0.016166827451147815,"315":0.002714391031974644,"316":0.0824960552595627,"317":-0.023114470059420553,"318":0.13045557633127952,"319":0.45729058207639356,"320":0.04246592516040341,"321":0.8540886011225011,"322":0.23153255601300252,"323":0.033062451381639185,"324":0.23747319354394003,"325":0.3105910319453178,"326":-0.2294146632027217,"327":0.08936951995780694,"328":-0.26866756740753345,"329":0.12356448304528861,"330":-0.20339409001554698,"331":-0.03161000899014282,"332":-0.28634394220959924,"333":-0.41031216470791015,"334":0.16234338550384705,"335":-0.17044464633676235,"336":-0.1759442882733745,"337":-0.020235535205282016,"338":-0.060894894651877106,"339":-0.08345710443008372,"340":-0.0540239623802086,"341":0.13350617989047223,"342":0.03453686716108366,"343":0.120366992295068,"344":-0.06964767907953165,"345":0.5131619839125207,"346":-0.001015278483284818,"347":0.44851354693507933,"348":-0.07704426167529106,"349":0.3442582265674454,"350":-0.1298686545693066,"351":-0.132969051408006,"352":-0.4410726249310681,"353":0.2699705378288364,"354":-0.33803122543076536,"355":-0.5565174363439632,"356":-0.12768384855022025,"357":0.08556409350499233,"358":0.017345985139521,"359":0.02382355241717651,"360":-0.2628282589037319,"361":-0.15616972112148186,"362":0.11094892292705284,"363":0.008043061081315556,"364":-0.1953744140917479,"365":0.19826867672399356,"366":-0.14749618670226602,"367":-0.16840959482748116,"368":-0.14313934063944495,"369":-0.02892498140424181,"370":0.1602712543801841,"371":0.3129825185708503,"372":-0.313573343278065,"373":-0.22652025849199706,"374":-0.11144991668602917,"375":0.016287231779072764,"376":0.1337362888643248,"377":0.12482840944012827,"378":0.322630637262946,"379":0.06749449193242044,"380":-0.0290824129893279,"381":0.08404642698110314,"382":0.022979177769769318,"383":-0.7106762861131997,"384":0.06554205193381796,"385":0.10993696689982721,"386":0.3093921318443145,"387":0.03659212507256997,"388":-0.09614862790504493,"389":-0.13644646776138758,"390":0.06087110061567662,"391":-0.18718769282500444,"392":0.1867538302464401,"393":-0.06511394766803269,"394":0.13651472589129424,"395":-0.07005011952161194,"396":-0.19874856961078322,"397":-0.004612018445146408,"398":0.06538934263802242,"399":0.3536648570442823,"400":-0.0540852872556278,"401":0.04702107426216557,"402":0.06943048446821849,"403":0.03392698036757244,